~o
<HMMSETID> jnas.mono.mix16
<STREAMINFO> 1 25
<VECSIZE> 25<NULLD><MFCC_E_D_N_Z><DIAGC>
~v "varFloor1"
<VARIANCE> 25
 5.715296e-01 3.764757e-01 5.496322e-01 6.988065e-01 6.294941e-01 5.186804e-01 5.445232e-01 4.573015e-01 4.382522e-01 3.997853e-01 4.086962e-01 3.066554e-01 2.821819e-02 2.423904e-02 2.844111e-02 3.944424e-02 3.635852e-02 3.236246e-02 3.298122e-02 3.188674e-02 2.921825e-02 2.747963e-02 2.705992e-02 2.132737e-02 4.921979e-03
~h "N"
<BEGINHMM>
<NUMSTATES> 5
<STATE> 2
<NUMMIXES> 16
<MIXTURE> 1 7.281563e-02
<MEAN> 25
 7.344773e+00 1.476680e+00 3.787448e+00 2.982544e+00 -7.458855e+00 -4.074642e+00 1.400080e+00 -7.675633e+00 -6.656231e+00 4.761190e-01 -4.512014e+00 -3.656945e+00 1.205188e+00 9.086173e-01 1.449468e-01 1.537732e+00 -3.572576e-01 1.257520e+00 1.479424e-01 -3.839473e+00 9.163805e-01 1.362620e+00 -1.615497e+00 1.779354e-01 -4.181331e-01
<VARIANCE> 25
 8.154427e+00 1.538640e+01 1.711928e+01 3.724293e+01 2.691527e+01 3.422271e+01 3.764616e+01 4.993200e+01 4.501012e+01 3.664443e+01 3.903475e+01 3.390577e+01 5.105602e-01 1.615641e+00 2.107160e+00 2.553225e+00 3.076279e+00 3.842008e+00 5.446694e+00 4.042623e+00 4.656043e+00 3.688595e+00 3.451165e+00 3.202699e+00 5.423193e-02
<GCONST> 9.558070e+01
<MIXTURE> 2 4.308276e-02
<MEAN> 25
 7.997100e+00 1.674271e+00 4.541265e+00 4.417220e+00 -6.462638e+00 -3.103242e+00 3.501089e-01 -4.390318e+00 -7.611616e+00 -5.885257e-01 1.491425e-01 -5.027236e+00 1.355959e+00 -1.483314e-01 -1.773822e+00 2.919327e+00 3.608852e-01 -2.317190e+00 1.899928e+00 -4.664350e-01 -7.702236e-01 5.374398e-01 -4.247853e-01 1.597138e-02 -3.110725e-01
<VARIANCE> 25
 8.983002e+00 1.683842e+01 1.956723e+01 3.749558e+01 2.826521e+01 3.574099e+01 3.461712e+01 4.389206e+01 3.973045e+01 3.815692e+01 3.864283e+01 3.080122e+01 4.120839e-01 8.231967e-01 1.146095e+00 1.496567e+00 1.889415e+00 1.912267e+00 2.326748e+00 2.638871e+00 2.167585e+00 2.215889e+00 2.248943e+00 1.734520e+00 3.539184e-02
<GCONST> 8.836078e+01
<MIXTURE> 3 7.372008e-02
<MEAN> 25
 6.966577e+00 -8.270985e-01 3.050040e+00 3.416107e+00 -3.915835e+00 -9.511990e-01 -3.571152e+00 -8.896607e+00 -1.108900e+00 1.316960e+00 -6.201735e+00 -3.114916e+00 -1.724659e-01 9.856594e-01 2.812719e+00 1.802089e+00 -1.938229e+00 -1.733208e-01 5.602415e-01 -2.196621e+00 3.827699e-01 -2.028246e-01 -1.164789e+00 1.230639e+00 -3.342493e-01
<VARIANCE> 25
 6.898818e+00 1.648454e+01 2.985519e+01 3.357034e+01 2.827804e+01 4.539767e+01 5.225835e+01 4.676745e+01 3.879447e+01 3.706782e+01 3.284600e+01 2.785869e+01 3.722324e-01 9.426016e-01 1.764193e+00 2.676774e+00 2.447295e+00 2.748033e+00 3.666212e+00 3.951083e+00 3.216012e+00 3.279612e+00 3.191895e+00 2.398066e+00 3.765787e-02
<GCONST> 9.283555e+01
<MIXTURE> 4 6.426418e-02
<MEAN> 25
 7.454552e+00 -6.417837e-02 1.078232e+00 6.174036e-01 -5.371778e+00 -6.908574e+00 -5.257293e+00 -3.619548e+00 -3.835907e+00 -7.775908e+00 -6.794693e+00 -2.371269e-01 6.701300e-01 1.474488e+00 2.519634e+00 5.526058e-01 -2.477650e+00 1.692303e+00 -5.328865e-02 -2.016365e+00 2.618420e-02 -5.490313e-01 5.510991e-01 3.673678e-01 -3.903777e-01
<VARIANCE> 25
 6.447825e+00 1.589206e+01 2.976507e+01 2.640067e+01 3.529177e+01 4.299358e+01 4.499466e+01 4.458978e+01 4.395327e+01 4.157969e+01 4.266739e+01 3.629980e+01 5.684404e-01 1.468657e+00 2.231101e+00 2.507114e+00 3.077705e+00 4.563106e+00 5.221886e+00 5.459573e+00 4.928077e+00 4.859316e+00 3.965320e+00 3.851219e+00 5.614234e-02
<GCONST> 9.758344e+01
<MIXTURE> 5 5.164631e-02
<MEAN> 25
 8.444336e+00 -2.519643e+00 -4.011143e+00 -5.639102e-02 1.375930e+00 -6.823135e-02 -3.297037e+00 -2.289991e+00 -1.819137e+00 1.998809e+00 -2.459534e+00 -6.271790e+00 -1.889901e-02 1.638202e+00 2.957866e+00 2.790130e+00 -2.387281e+00 -5.483842e-01 1.225201e+00 -2.805965e+00 -1.088498e+00 9.482400e-01 -8.098100e-01 1.040288e+00 -7.286799e-01
<VARIANCE> 25
 7.567305e+00 1.490610e+01 2.826379e+01 3.574208e+01 2.540711e+01 4.509592e+01 4.724325e+01 4.465781e+01 3.358057e+01 3.710218e+01 3.549798e+01 2.925696e+01 5.464903e-01 1.144808e+00 2.400422e+00 3.002768e+00 3.023920e+00 3.881932e+00 3.708221e+00 4.336951e+00 4.130523e+00 3.800512e+00 3.795639e+00 2.816656e+00 4.953140e-02
<GCONST> 9.522639e+01
<MIXTURE> 6 8.317040e-02
<MEAN> 25
 4.909649e+00 1.520137e+00 5.478817e+00 -1.730358e+00 -8.672843e+00 -1.038838e+00 -1.172964e+00 -3.436146e+00 -8.155075e+00 -1.796162e+00 -1.495437e+00 -4.598507e+00 1.741736e+00 7.705879e-01 -1.793111e+00 2.526008e+00 1.940276e+00 -1.278757e+00 -7.197201e-01 -6.384272e-01 9.432834e-01 -4.414144e-01 -1.074494e+00 6.279657e-01 -6.541896e-01
<VARIANCE> 25
 1.003480e+01 1.995416e+01 2.195554e+01 3.467703e+01 3.543686e+01 4.065351e+01 3.735635e+01 4.305529e+01 4.109825e+01 4.551405e+01 4.106802e+01 3.531645e+01 6.080079e-01 1.442757e+00 2.435682e+00 2.127566e+00 2.569222e+00 3.697566e+00 3.915514e+00 4.605451e+00 3.285443e+00 3.502716e+00 3.032130e+00 2.412999e+00 7.583136e-02
<GCONST> 9.586250e+01
<MIXTURE> 7 5.989545e-02
<MEAN> 25
 3.260985e+00 1.109681e+00 7.114722e+00 -4.649827e+00 -9.083592e+00 1.523968e+00 -2.907118e+00 -2.378580e+00 -7.411946e+00 -2.203313e+00 7.652293e-02 -4.758251e+00 2.972494e-01 4.825286e-01 -2.951948e-01 7.420990e-01 7.474683e-01 -3.341856e-01 -2.072725e-01 -1.081585e-01 -2.145024e-01 -2.417164e-02 -1.208176e-01 -1.572363e-02 -2.211473e-01
<VARIANCE> 25
 9.407681e+00 2.104449e+01 3.177825e+01 2.689358e+01 3.426627e+01 5.284414e+01 4.032865e+01 4.634634e+01 4.552370e+01 4.107876e+01 4.280823e+01 4.114095e+01 2.387807e-01 7.076773e-01 8.166082e-01 1.077132e+00 1.104694e+00 1.506763e+00 1.464435e+00 1.709396e+00 1.354366e+00 1.454687e+00 1.323192e+00 1.169390e+00 2.457508e-02
<GCONST> 8.495744e+01
<MIXTURE> 8 6.671853e-02
<MEAN> 25
 6.963267e+00 -2.569909e+00 1.640551e+00 3.048374e+00 -4.157633e+00 -5.733312e+00 -3.789799e+00 3.786272e+00 -2.593150e+00 -4.192256e+00 -8.165894e-01 -4.212276e+00 9.425992e-01 1.268816e+00 -5.290066e-01 1.397634e+00 1.097575e+00 7.624543e-01 1.870052e-01 -2.839974e+00 -6.352827e-01 1.793204e+00 -6.512979e-01 -9.532875e-01 -5.778053e-01
<VARIANCE> 25
 8.387903e+00 1.688017e+01 1.908771e+01 2.194256e+01 2.932424e+01 3.522395e+01 4.469082e+01 4.027270e+01 4.427403e+01 3.142024e+01 3.177971e+01 3.441759e+01 3.991066e-01 9.798952e-01 2.113147e+00 2.108625e+00 2.534680e+00 2.943611e+00 3.362704e+00 4.232949e+00 3.513233e+00 2.433448e+00 3.154855e+00 2.506816e+00 7.652517e-02
<GCONST> 9.247254e+01
<MIXTURE> 9 6.908898e-02
<MEAN> 25
 8.629478e+00 -7.834603e-01 -2.039945e+00 -4.807987e+00 -4.113458e+00 4.112835e+00 -1.876015e+00 -3.505922e+00 -5.564022e+00 -2.034195e+00 -1.764428e+00 -3.659940e+00 -5.486637e-01 9.308889e-02 2.469892e+00 2.777421e+00 -1.481645e-01 -1.100798e+00 -3.823095e-01 -2.015836e+00 -4.527243e-02 1.215854e+00 -1.386644e+00 8.918158e-02 -4.124250e-01
<VARIANCE> 25
 7.968057e+00 1.527247e+01 2.939927e+01 4.729828e+01 4.815765e+01 3.200082e+01 5.259900e+01 5.278365e+01 4.487759e+01 4.084252e+01 4.026378e+01 3.527317e+01 3.518763e-01 8.363920e-01 1.578992e+00 2.563701e+00 2.359754e+00 2.157729e+00 2.980862e+00 3.402279e+00 3.747937e+00 2.744365e+00 3.027037e+00 2.334489e+00 4.820751e-02
<GCONST> 9.340051e+01
<MIXTURE> 10 6.262501e-02
<MEAN> 25
 9.555008e+00 -1.967660e+00 -7.016859e+00 -4.507301e+00 8.415331e-01 3.263417e+00 -2.242875e+00 -9.509759e-01 -5.842143e+00 -2.982344e+00 -7.794724e-02 -5.075617e+00 1.833670e-01 7.854158e-01 1.075259e+00 6.252446e-01 -1.524636e+00 -3.356897e-01 9.305850e-01 -1.714432e-01 -3.436475e-01 2.056715e-01 -8.074173e-01 5.791217e-01 -2.827545e-01
<VARIANCE> 25
 7.171629e+00 1.594009e+01 2.117935e+01 3.991180e+01 3.722300e+01 5.404266e+01 5.022672e+01 4.006443e+01 4.557306e+01 4.566385e+01 4.211940e+01 3.582124e+01 2.132304e-01 4.883659e-01 8.026697e-01 1.192557e+00 1.313277e+00 1.699293e+00 1.932441e+00 2.046489e+00 2.281784e+00 2.064589e+00 1.945037e+00 1.609415e+00 1.973359e-02
<GCONST> 8.623649e+01
<MIXTURE> 11 7.295080e-02
<MEAN> 25
 8.084197e+00 4.504929e+00 1.180882e+00 -2.947259e+00 -5.831622e+00 -2.787585e+00 -7.025243e+00 -9.144193e+00 -5.667225e+00 -2.729684e+00 -7.918707e+00 -2.662089e+00 1.855373e+00 -1.066304e-01 -1.747095e+00 3.231462e+00 -1.356568e-01 -1.347095e+00 5.264091e-01 -1.473742e-01 -1.589381e-01 -5.438318e-01 3.159907e-01 -2.234912e-01 -2.851930e-01
<VARIANCE> 25
 8.746798e+00 1.760569e+01 1.990259e+01 3.307138e+01 2.823728e+01 3.772269e+01 3.922085e+01 3.906044e+01 4.130671e+01 3.769286e+01 3.907218e+01 3.461936e+01 4.640549e-01 1.109486e+00 1.440680e+00 2.033213e+00 2.891236e+00 3.220436e+00 4.144920e+00 3.368849e+00 3.169900e+00 3.130399e+00 2.796161e+00 2.443946e+00 3.305341e-02
<GCONST> 9.242451e+01
<MIXTURE> 12 5.499526e-02
<MEAN> 25
 3.035981e+00 1.715263e+00 4.740930e+00 -1.090358e+01 -6.699524e+00 2.633239e-02 -5.737798e+00 -1.014942e+01 -5.595241e+00 -1.122810e+00 -7.663694e+00 2.389628e-01 2.237035e+00 4.179551e-01 -1.806610e+00 3.660340e+00 3.160518e-01 -1.630656e+00 -6.047788e-01 -6.071623e-02 -1.027758e-01 -5.167691e-01 4.173669e-01 -1.553103e-01 -6.849765e-01
<VARIANCE> 25
 1.160268e+01 2.181096e+01 2.493519e+01 4.414061e+01 2.957739e+01 4.226452e+01 4.656242e+01 4.184970e+01 5.124701e+01 4.561809e+01 5.702628e+01 6.034729e+01 7.890892e-01 1.609100e+00 2.060923e+00 2.982765e+00 3.041968e+00 3.907822e+00 4.717920e+00 4.705665e+00 3.962570e+00 3.795719e+00 3.519092e+00 3.048149e+00 8.084840e-02
<GCONST> 9.928941e+01
<MIXTURE> 13 6.590102e-02
<MEAN> 25
 4.297070e+00 -1.630063e+00 -8.140492e-01 -3.599289e+00 -4.734998e+00 -9.736526e+00 -1.610898e+00 -1.310142e+00 -1.118738e+01 -7.458920e+00 -2.687154e+00 -1.266925e-01 9.512252e-01 2.167810e+00 1.377351e+00 5.240305e-01 -1.273183e+00 7.439877e-01 -1.262954e-01 -2.719715e+00 5.509045e-02 1.237517e+00 -2.638007e-01 -1.921535e-01 -5.000494e-01
<VARIANCE> 25
 9.858892e+00 1.700464e+01 2.583169e+01 2.984667e+01 3.923039e+01 4.318032e+01 3.949126e+01 4.700837e+01 4.853803e+01 4.338135e+01 4.356062e+01 4.904646e+01 1.065291e+00 1.336089e+00 2.195362e+00 3.330621e+00 3.167773e+00 4.704904e+00 4.616292e+00 4.083335e+00 5.124584e+00 3.977444e+00 3.718292e+00 3.176976e+00 7.627220e-02
<GCONST> 9.888808e+01
<MIXTURE> 14 5.007014e-02
<MEAN> 25
 8.689607e-01 3.670752e+00 6.103271e+00 -1.516498e+01 -6.313827e+00 3.612978e+00 -7.429208e+00 -9.696053e+00 -6.355928e+00 -2.896643e+00 -8.498987e+00 -3.056221e+00 3.144520e-01 1.095631e+00 1.792201e-01 2.370771e-01 8.560656e-01 6.739791e-02 -1.222887e+00 -5.709671e-01 3.593572e-01 -1.728834e-02 -3.761362e-01 2.839592e-01 -2.153859e-01
<VARIANCE> 25
 7.846737e+00 2.186140e+01 1.999548e+01 3.084542e+01 3.246989e+01 3.491637e+01 4.308943e+01 3.369412e+01 4.236928e+01 3.458680e+01 3.483661e+01 3.865362e+01 3.158295e-01 9.259370e-01 8.969463e-01 1.945865e+00 1.547115e+00 2.077868e+00 2.436122e+00 2.083263e+00 2.249897e+00 1.916236e+00 1.978295e+00 1.737025e+00 2.636490e-02
<GCONST> 8.750477e+01
<MIXTURE> 15 5.985268e-02
<MEAN> 25
 5.546192e+00 -4.643495e+00 -8.418584e+00 -2.835559e+00 5.483922e+00 -6.659296e+00 -8.776994e+00 1.809584e+00 -7.925285e+00 -9.868737e+00 -3.700271e+00 -6.376162e+00 2.629425e-01 1.207386e+00 7.208340e-01 3.684050e-01 -8.918231e-01 -8.110490e-01 6.893846e-01 -2.227755e-01 -8.181986e-01 5.156045e-01 -2.818207e-01 1.394279e-01 -2.893752e-01
<VARIANCE> 25
 8.006527e+00 1.427018e+01 2.176295e+01 2.619889e+01 4.115476e+01 5.653900e+01 4.052558e+01 4.466482e+01 4.860671e+01 5.041640e+01 3.787592e+01 4.035113e+01 2.918372e-01 6.892949e-01 1.087916e+00 1.195369e+00 1.601873e+00 2.151433e+00 1.716931e+00 2.258369e+00 2.142515e+00 2.110180e+00 1.880374e+00 1.902167e+00 2.500005e-02
<GCONST> 8.776657e+01
<MIXTURE> 16 4.920853e-02
<MEAN> 25
 6.494042e+00 -3.386859e+00 -6.677963e+00 -4.187277e+00 3.471538e+00 -7.664702e+00 -8.401280e+00 7.895079e-01 -6.644897e+00 -5.656285e+00 -5.388292e+00 -4.333418e+00 5.356441e-01 1.544725e+00 3.337158e+00 1.842678e+00 -2.977697e+00 -9.391395e-01 2.480859e-01 -1.584053e+00 2.750082e-01 5.769964e-01 -9.671803e-01 7.210287e-01 -6.455060e-01
<VARIANCE> 25
 7.787665e+00 1.578836e+01 2.926366e+01 3.003082e+01 3.307042e+01 5.938953e+01 3.869182e+01 4.487288e+01 4.472523e+01 5.541478e+01 4.026346e+01 4.247263e+01 5.812968e-01 1.312546e+00 2.138498e+00 3.023527e+00 2.972702e+00 4.363281e+00 4.511176e+00 4.183054e+00 4.897491e+00 5.351926e+00 3.743278e+00 3.951864e+00 6.058612e-02
<GCONST> 9.809214e+01
<STATE> 3
<NUMMIXES> 16
<MIXTURE> 1 6.695065e-02
<MEAN> 25
 9.269145e+00 -1.962567e-01 4.181792e+00 6.489304e+00 -6.389599e+00 -2.699857e+00 1.650057e+00 -7.076161e+00 -7.845169e+00 3.475760e+00 -1.232168e+00 -6.191557e+00 9.493026e-02 4.481336e-01 1.414226e-01 1.295070e-01 -1.849413e-01 -3.224416e-02 2.990920e-01 -2.955293e-01 -3.519803e-01 2.665959e-01 -8.401874e-02 -1.123064e-02 -8.942629e-02
<VARIANCE> 25
 7.482937e+00 1.271173e+01 1.998636e+01 2.680714e+01 2.990889e+01 3.288036e+01 2.909804e+01 3.657620e+01 3.694671e+01 2.644824e+01 4.027941e+01 2.497473e+01 1.512959e-01 3.987612e-01 5.305353e-01 6.645193e-01 7.168774e-01 8.635203e-01 9.106644e-01 1.083382e+00 1.049391e+00 1.044800e+00 1.075691e+00 9.711107e-01 8.285077e-03
<GCONST> 7.544410e+01
<MIXTURE> 2 7.311928e-02
<MEAN> 25
 8.528614e+00 6.740335e-01 3.671578e+00 4.913866e+00 -6.072459e+00 -1.217688e+00 -1.168744e+00 -5.388255e+00 -6.182598e+00 1.020226e+00 -2.213971e+00 -5.082468e+00 1.026201e-01 1.619884e+00 -1.895407e-01 8.012995e-01 4.986399e-01 -5.320784e-01 1.167566e+00 -9.866734e-01 -3.945193e-01 4.783155e-01 -4.743164e-01 3.925728e-01 -3.881947e-01
<VARIANCE> 25
 8.460037e+00 1.559776e+01 2.687045e+01 3.549735e+01 3.899905e+01 4.035402e+01 4.815399e+01 5.331655e+01 4.488198e+01 3.984406e+01 4.022076e+01 3.417171e+01 4.536216e-01 8.268648e-01 1.229765e+00 1.313125e+00 1.755841e+00 1.796476e+00 1.670661e+00 2.236215e+00 2.336799e+00 2.105023e+00 1.956587e+00 1.803076e+00 4.280193e-02
<GCONST> 8.928461e+01
<MIXTURE> 3 7.283118e-02
<MEAN> 25
 7.575303e+00 9.772952e-01 5.850882e+00 5.043978e+00 -7.029583e+00 -1.353170e+00 -5.152571e-01 -1.082452e+01 -2.486266e+00 1.528258e+00 -5.733450e+00 -2.599689e+00 4.040593e-02 2.322257e-01 2.783852e-02 4.142660e-02 -1.147505e-01 1.014355e-01 -4.635266e-03 -1.632537e-01 6.162877e-02 2.052713e-02 -4.607245e-02 2.976913e-02 -4.487737e-02
<VARIANCE> 25
 7.035393e+00 1.325161e+01 1.581999e+01 3.054066e+01 3.275132e+01 3.895210e+01 3.781280e+01 3.747237e+01 4.444197e+01 3.434815e+01 3.449721e+01 2.845042e+01 6.065597e-02 1.443021e-01 1.520740e-01 2.116579e-01 2.862517e-01 3.275470e-01 3.895769e-01 4.154047e-01 4.567702e-01 4.557494e-01 4.392419e-01 4.231733e-01 4.921979e-03
<GCONST> 6.436076e+01
<MIXTURE> 4 6.219322e-02
<MEAN> 25
 8.888790e+00 6.231342e-01 3.577275e+00 4.083119e+00 -8.091410e+00 9.712126e-01 -1.102808e+00 -9.840016e+00 -2.653105e+00 -1.329923e-01 -4.539347e+00 -1.815055e+00 4.751305e-01 2.602910e-01 7.768851e-01 5.468490e-01 -1.122747e+00 1.366243e+00 -1.543218e-01 -1.302722e+00 2.601220e-01 -5.292387e-02 -5.909894e-02 2.876138e-01 -1.550039e-01
<VARIANCE> 25
 7.355894e+00 1.827814e+01 2.459052e+01 2.858155e+01 2.986231e+01 3.156830e+01 4.110131e+01 4.689159e+01 3.908639e+01 3.709132e+01 3.142111e+01 2.998100e+01 4.142589e-01 1.024358e+00 1.317138e+00 1.750859e+00 1.599176e+00 1.756942e+00 2.343752e+00 3.347445e+00 2.619415e+00 2.353188e+00 2.159340e+00 1.797299e+00 2.245740e-02
<GCONST> 8.839315e+01
<MIXTURE> 5 5.749421e-02
<MEAN> 25
 9.326107e+00 4.122094e+00 3.097733e+00 5.528862e-01 -7.726165e+00 -1.791586e+00 -4.969246e+00 -1.113737e+01 -3.656823e+00 -4.297744e+00 -6.148186e+00 -1.364963e+00 3.629407e-01 5.373105e-01 4.373183e-03 1.988569e-01 -3.880961e-01 8.576071e-01 -2.697524e-01 -4.469944e-01 2.872606e-01 -2.345195e-02 1.152835e-01 4.086645e-02 -7.111380e-02
<VARIANCE> 25
 4.694045e+00 1.243896e+01 1.952160e+01 2.430770e+01 2.520189e+01 3.923240e+01 4.300066e+01 5.220198e+01 4.627811e+01 4.865023e+01 4.607012e+01 3.633015e+01 9.548915e-02 3.911722e-01 4.189134e-01 6.663943e-01 8.849735e-01 8.566372e-01 1.387389e+00 1.580794e+00 1.549865e+00 1.759362e+00 1.565555e+00 1.475606e+00 4.921979e-03
<GCONST> 7.840276e+01
<MIXTURE> 6 7.003370e-02
<MEAN> 25
 7.048940e+00 2.187834e+00 5.792799e+00 4.787903e+00 -6.340628e+00 -2.427975e+00 3.340261e-01 -1.178510e+01 -2.277646e+00 1.540986e+00 -7.637622e+00 -1.831968e+00 3.864535e-01 8.595631e-01 -1.677834e-01 6.590773e-01 -5.660807e-01 4.240679e-01 1.510513e-01 -4.703566e-01 -6.058626e-02 5.386585e-02 -7.212088e-02 -8.643374e-02 -1.968529e-01
<VARIANCE> 25
 5.949279e+00 1.450630e+01 1.643685e+01 3.522525e+01 3.536100e+01 4.609924e+01 4.354068e+01 4.181589e+01 5.203470e+01 4.336449e+01 3.733660e+01 3.050122e+01 1.655499e-01 4.132561e-01 4.422543e-01 5.930882e-01 8.132536e-01 9.460273e-01 1.153069e+00 1.452029e+00 1.451704e+00 1.405196e+00 1.366016e+00 1.213304e+00 1.637105e-02
<GCONST> 7.976740e+01
<MIXTURE> 7 7.285282e-02
<MEAN> 25
 9.024015e+00 3.900906e+00 1.038269e+00 1.336493e+00 -5.474450e+00 -4.876480e+00 -3.621486e+00 -6.991031e+00 -5.187878e+00 -3.112519e+00 -6.356992e+00 -2.949205e+00 5.554808e-01 4.634337e-01 -3.415295e-01 1.145817e+00 1.828527e-01 -7.416478e-01 2.033771e-01 -8.412277e-02 3.164909e-01 -3.417374e-01 -2.406495e-01 2.129848e-01 -1.484355e-01
<VARIANCE> 25
 8.042056e+00 1.850974e+01 2.161740e+01 3.542743e+01 3.010578e+01 3.807359e+01 5.758648e+01 5.369664e+01 4.853707e+01 4.324039e+01 4.756305e+01 3.445204e+01 3.960804e-01 8.280318e-01 1.465490e+00 1.110265e+00 1.787949e+00 1.417448e+00 2.093431e+00 2.128138e+00 2.231946e+00 2.282340e+00 2.392255e+00 1.964288e+00 1.352565e-02
<GCONST> 8.839070e+01
<MIXTURE> 8 4.580747e-02
<MEAN> 25
 7.616168e+00 1.487329e+00 1.606455e+00 1.927513e+00 -4.232188e+00 -2.941183e+00 -3.250006e+00 -4.300971e+00 -4.397026e+00 -1.842810e+00 -3.055538e+00 -2.284750e+00 -5.226389e-02 1.778321e+00 3.386704e-01 1.587328e+00 1.051175e+00 -1.831042e-01 4.484279e-01 -8.860963e-01 -6.738439e-02 3.877037e-01 -2.522693e-01 1.645697e-01 -6.314989e-01
<VARIANCE> 25
 1.064092e+01 2.189861e+01 3.431524e+01 4.068107e+01 4.561774e+01 5.456498e+01 6.137287e+01 7.123595e+01 5.537275e+01 5.136555e+01 5.074649e+01 4.507577e+01 1.445249e+00 2.281450e+00 4.307804e+00 3.446244e+00 4.360932e+00 5.071440e+00 5.520639e+00 5.312137e+00 5.304850e+00 4.359183e+00 4.305631e+00 3.894904e+00 1.383613e-01
<GCONST> 1.048785e+02
<MIXTURE> 9 5.040261e-02
<MEAN> 25
 7.499909e+00 1.321797e+00 3.852430e+00 8.120195e-02 -6.572562e+00 -3.322851e+00 -4.458902e+00 -7.271218e+00 -3.340918e+00 -5.543828e+00 -5.414679e+00 -1.261841e-01 1.071188e-01 4.725590e-01 5.417832e-01 -1.684824e-01 -6.019720e-01 2.852853e-01 5.331690e-01 -2.421580e-01 -2.519764e-01 -2.748588e-01 2.230530e-02 6.115271e-01 -5.359057e-02
<VARIANCE> 25
 7.317492e+00 1.507691e+01 2.900862e+01 3.303423e+01 3.362372e+01 6.841929e+01 5.098539e+01 5.904714e+01 5.794715e+01 6.447927e+01 6.469787e+01 4.984495e+01 1.231000e-01 3.633123e-01 4.995556e-01 5.928469e-01 8.844568e-01 9.198493e-01 1.258222e+00 1.311743e+00 1.400250e+00 1.437217e+00 1.607151e+00 1.311689e+00 4.942269e-03
<GCONST> 8.167662e+01
<MIXTURE> 10 6.568398e-02
<MEAN> 25
 7.338741e+00 1.666165e-01 4.489367e+00 4.491847e-01 -5.097336e+00 -2.351237e-01 -4.943353e+00 -3.937440e+00 -5.007758e+00 -1.658459e+00 -3.165179e+00 -4.202096e+00 2.113245e-01 6.135051e-01 -3.049324e-02 6.508579e-01 -1.175959e-01 -1.882507e-01 2.403627e-01 -4.978274e-01 9.599270e-02 3.401672e-01 -1.236459e-01 5.139736e-03 -1.822967e-01
<VARIANCE> 25
 1.018496e+01 1.998631e+01 3.452469e+01 4.682482e+01 4.376321e+01 5.035432e+01 4.817429e+01 4.808763e+01 4.453185e+01 4.482257e+01 3.908840e+01 3.556776e+01 1.591823e-01 3.553523e-01 5.949389e-01 5.546739e-01 7.545934e-01 7.819379e-01 8.830844e-01 9.470990e-01 9.783993e-01 1.002881e+00 9.279051e-01 8.276154e-01 1.109690e-02
<GCONST> 7.946152e+01
<MIXTURE> 11 5.277364e-02
<MEAN> 25
 6.484827e+00 1.316732e+00 4.548868e+00 -3.132033e+00 -6.016797e+00 -1.638925e+00 -6.829660e+00 -4.757459e+00 -5.309830e+00 -4.873207e+00 -4.819500e+00 -3.392599e+00 4.977580e-02 1.730192e-01 9.671279e-02 -4.229916e-03 -2.213672e-02 -4.696648e-04 -5.025550e-02 2.352852e-02 2.873863e-02 2.332178e-02 2.233801e-02 8.852792e-03 -3.785283e-02
<VARIANCE> 25
 1.440605e+01 2.006922e+01 3.096712e+01 4.415953e+01 3.509819e+01 5.897048e+01 4.434457e+01 4.558951e+01 4.542951e+01 4.988789e+01 5.861258e+01 4.072338e+01 5.080210e-02 1.308009e-01 1.730685e-01 2.491035e-01 3.131438e-01 3.540414e-01 3.686106e-01 4.104106e-01 4.270323e-01 4.202928e-01 3.948177e-01 3.801951e-01 4.921979e-03
<GCONST> 6.841100e+01
<MIXTURE> 12 8.684050e-02
<MEAN> 25
 8.811511e+00 2.350159e+00 9.671818e-01 -1.771278e+00 -7.560122e+00 -3.588798e+00 -6.129677e+00 -9.880254e+00 -5.773650e+00 -5.904409e+00 -4.871987e+00 -8.470219e-01 8.394283e-01 8.745098e-01 1.372533e-01 4.269178e-01 -3.258423e-01 1.358188e+00 -8.797657e-01 -7.124289e-01 3.076052e-01 -7.999807e-02 7.923463e-02 -5.710433e-01 -1.858183e-01
<VARIANCE> 25
 7.041557e+00 1.672283e+01 2.273964e+01 2.592014e+01 3.048755e+01 4.504050e+01 4.575834e+01 5.255482e+01 5.688552e+01 5.560516e+01 6.727300e+01 6.100446e+01 3.999375e-01 1.054992e+00 1.294546e+00 1.767905e+00 2.171296e+00 2.276614e+00 3.328238e+00 3.982217e+00 3.678439e+00 3.535476e+00 3.359739e+00 2.880936e+00 2.836537e-02
<GCONST> 9.390385e+01
<MIXTURE> 13 6.767388e-02
<MEAN> 25
 9.412582e+00 4.084893e+00 1.328307e+00 -1.401382e+00 -7.149022e+00 -5.823883e+00 -6.101289e+00 -7.776081e+00 -6.071255e+00 -5.774271e+00 -9.419033e+00 -3.687465e+00 3.351017e-01 4.356165e-01 -1.306714e-01 3.724858e-01 -4.844262e-02 7.546559e-02 -1.719991e-01 -9.596345e-02 2.387097e-01 1.029376e-01 -8.277737e-02 -2.505897e-01 -6.228844e-02
<VARIANCE> 25
 7.350730e+00 1.325857e+01 1.882619e+01 2.132340e+01 2.801206e+01 3.328089e+01 3.292592e+01 3.657868e+01 3.654472e+01 3.803349e+01 3.129074e+01 3.315076e+01 1.184527e-01 3.438456e-01 4.841314e-01 5.958176e-01 7.719420e-01 9.050682e-01 1.051246e+00 1.120601e+00 1.147201e+00 1.229582e+00 1.112274e+00 1.038831e+00 4.921979e-03
<GCONST> 7.516984e+01
<MIXTURE> 14 6.817169e-02
<MEAN> 25
 6.741721e+00 1.478112e+00 1.960919e+00 -2.021840e+00 -4.271914e+00 -5.140600e+00 -6.329977e+00 -6.764481e+00 -6.301827e+00 -5.346087e+00 -8.067578e+00 -3.039715e+00 -4.468383e-02 7.964540e-01 1.184519e+00 4.798391e-01 -3.714269e-01 -4.282432e-01 -1.745939e-01 -4.096361e-01 4.777808e-01 1.140326e-01 -4.507751e-01 -1.290967e-01 -1.377862e-01
<VARIANCE> 25
 9.919604e+00 2.087638e+01 3.051298e+01 3.932937e+01 4.192170e+01 5.571222e+01 4.798209e+01 5.572159e+01 5.461837e+01 5.712410e+01 3.405585e+01 3.887989e+01 4.053333e-01 8.539502e-01 1.370086e+00 1.611139e+00 1.905842e+00 1.871375e+00 2.040930e+00 2.429896e+00 2.426124e+00 2.520616e+00 2.117958e+00 1.898776e+00 1.946751e-02
<GCONST> 9.111864e+01
<MIXTURE> 15 4.457945e-02
<MEAN> 25
 7.106897e+00 4.403487e-01 9.439173e-01 -3.351782e+00 -5.269340e+00 -3.621371e+00 -6.106357e+00 -7.506298e+00 -7.379846e+00 -6.630888e+00 -5.872117e+00 -1.317408e+00 1.207292e-01 3.250309e-01 2.786637e-01 -1.352358e-01 -3.361552e-01 1.681755e-01 7.471418e-03 -4.530679e-02 -9.604701e-03 -1.647997e-01 -1.623749e-01 -4.644268e-02 -4.179442e-02
<VARIANCE> 25
 1.004751e+01 1.718568e+01 3.325507e+01 3.688775e+01 4.467456e+01 5.574652e+01 5.030594e+01 6.692938e+01 5.787439e+01 5.524407e+01 4.972953e+01 5.346730e+01 1.331342e-01 3.504274e-01 4.699870e-01 6.289950e-01 9.321432e-01 1.035481e+00 1.150926e+00 1.355651e+00 1.259961e+00 1.373991e+00 1.274629e+00 1.179251e+00 4.921979e-03
<GCONST> 8.187616e+01
<MIXTURE> 16 4.259230e-02
<MEAN> 25
 4.403132e+00 2.844074e+00 3.109492e+00 -5.087164e+00 -6.957113e+00 -3.835747e+00 -4.663921e+00 -6.882964e+00 -8.512015e+00 -3.891523e+00 -3.701670e+00 -5.708764e-01 -1.497910e-01 1.326022e+00 -8.160163e-02 1.880663e+00 7.805341e-01 -6.161049e-01 -8.369768e-02 -3.108849e-01 4.074171e-01 -5.630637e-01 1.994159e-01 -4.215758e-01 -3.461510e-01
<VARIANCE> 25
 1.690307e+01 3.024415e+01 4.106915e+01 5.010592e+01 4.215684e+01 5.204863e+01 4.966721e+01 6.206612e+01 4.860736e+01 5.023891e+01 6.106709e+01 5.469020e+01 1.417753e+00 2.644582e+00 3.686987e+00 4.066997e+00 4.236121e+00 4.544929e+00 4.828363e+00 5.424534e+00 4.068314e+00 3.935819e+00 3.847068e+00 3.447067e+00 7.297517e-02
<GCONST> 1.044474e+02
<STATE> 4
<NUMMIXES> 16
<MIXTURE> 1 6.897439e-02
<MEAN> 25
 1.939068e+00 5.921163e+00 5.210494e+00 7.800577e+00 3.025774e+00 -2.847042e-01 -1.763854e+00 -5.815269e+00 -5.960697e+00 -3.502189e+00 -4.240011e+00 -3.381696e+00 -2.570301e+00 -1.704879e+00 -9.300922e-01 7.799559e-01 1.725545e+00 1.586801e+00 1.997515e+00 2.598034e+00 2.416671e+00 1.480607e+00 2.155082e+00 1.283316e+00 -8.928888e-01
<VARIANCE> 25
 1.076198e+01 1.779815e+01 1.856860e+01 2.547719e+01 2.506628e+01 2.677247e+01 2.718321e+01 3.025569e+01 2.856562e+01 2.899449e+01 2.832722e+01 2.566913e+01 1.378140e+00 1.376819e+00 1.510288e+00 2.717509e+00 2.575139e+00 2.574910e+00 2.986037e+00 3.192580e+00 3.512165e+00 3.517708e+00 3.073920e+00 2.575067e+00 2.204387e-01
<GCONST> 9.316065e+01
<MIXTURE> 2 6.267693e-02
<MEAN> 25
 9.447033e+00 4.261250e+00 2.230809e+00 7.903013e+00 -4.957063e+00 -4.393290e+00 3.166095e+00 -5.749417e+00 -8.385684e+00 1.332951e+00 -1.136400e+00 -5.185371e+00 -5.772651e-01 1.562257e+00 5.678982e-01 -5.861681e-01 1.178196e+00 6.680403e-01 -6.049079e-01 7.306688e-01 2.144932e-01 -4.593606e-01 -2.956177e-01 7.051827e-01 -4.562184e-01
<VARIANCE> 25
 8.469746e+00 1.476653e+01 1.920542e+01 2.698287e+01 3.200785e+01 3.101310e+01 3.493350e+01 4.409301e+01 4.090024e+01 3.945588e+01 3.863324e+01 2.995728e+01 6.824366e-01 1.067825e+00 1.195306e+00 1.410110e+00 1.751715e+00 1.969195e+00 2.140053e+00 2.182593e+00 2.219893e+00 2.019804e+00 2.140841e+00 1.702647e+00 8.193135e-02
<GCONST> 8.898367e+01
<MIXTURE> 3 9.252344e-02
<MEAN> 25
 1.008937e+01 6.147614e+00 2.758300e+00 4.566040e+00 -5.080060e+00 -1.078707e+00 -1.999974e+00 -7.899580e+00 -2.913356e+00 -1.387449e+00 -3.518836e+00 -9.058143e-01 2.527579e-02 6.015596e-01 1.128539e-02 2.032679e-02 2.581680e-01 -9.567792e-02 -6.271087e-02 3.431716e-01 -2.466469e-01 -1.777040e-01 2.495286e-01 3.799843e-02 -1.005004e-01
<VARIANCE> 25
 5.685198e+00 1.449657e+01 1.900406e+01 2.242109e+01 2.468943e+01 2.808388e+01 3.880420e+01 3.823628e+01 3.778859e+01 3.280217e+01 3.103762e+01 2.971508e+01 9.822132e-02 3.555120e-01 4.044342e-01 5.314820e-01 6.195163e-01 8.070814e-01 9.255776e-01 9.926133e-01 1.036620e+00 1.122000e+00 1.015473e+00 9.307823e-01 6.123992e-03
<GCONST> 7.353577e+01
<MIXTURE> 4 6.346873e-02
<MEAN> 25
 6.879010e+00 8.747573e+00 4.761772e+00 5.823905e+00 -1.820035e+00 -1.869518e+00 3.142216e+00 -5.580944e+00 -7.626524e+00 1.937064e+00 -3.831845e+00 -3.112135e+00 -2.270434e+00 8.453866e-01 1.125296e-01 2.135938e-01 2.926944e+00 6.262349e-01 -5.676326e-01 1.493334e+00 1.418084e+00 -1.198182e+00 -1.107434e-01 1.302513e+00 -9.236449e-01
<VARIANCE> 25
 9.101816e+00 1.311010e+01 1.454292e+01 2.285816e+01 3.078704e+01 2.648985e+01 2.584614e+01 3.671428e+01 3.670321e+01 3.018474e+01 3.351214e+01 2.423957e+01 1.460219e+00 2.473932e+00 2.332547e+00 2.895547e+00 3.016074e+00 3.311144e+00 3.548438e+00 3.692745e+00 3.686763e+00 3.309976e+00 3.711240e+00 2.840492e+00 2.892920e-01
<GCONST> 9.548985e+01
<MIXTURE> 5 6.195911e-02
<MEAN> 25
 7.720119e+00 6.190437e+00 5.274724e+00 5.059213e+00 -3.472608e+00 -8.975031e-01 -9.154667e-01 -7.350060e+00 -2.585162e+00 7.888854e-02 -5.570146e+00 -5.562541e-01 -4.302663e-01 9.271148e-01 -1.301613e-02 3.793877e-01 9.648222e-01 -1.338129e-01 -4.713306e-02 5.667896e-01 -2.065880e-01 -4.589025e-01 3.142028e-01 -9.128276e-02 -3.265803e-01
<VARIANCE> 25
 1.035223e+01 1.803128e+01 1.574941e+01 2.372945e+01 2.584537e+01 2.675846e+01 3.038904e+01 3.501227e+01 3.211134e+01 3.196010e+01 3.015384e+01 2.443697e+01 3.662803e-01 9.296846e-01 8.350891e-01 1.021604e+00 1.162241e+00 1.401003e+00 1.463347e+00 1.498545e+00 1.350171e+00 1.497641e+00 1.312036e+00 1.201426e+00 3.236307e-02
<GCONST> 8.190977e+01
<MIXTURE> 6 6.459919e-02
<MEAN> 25
 5.312593e+00 3.907548e+00 2.782704e+00 3.140695e+00 -9.634557e-01 -3.400611e+00 -1.553596e+00 -1.442823e+00 -4.552396e+00 -1.218177e+00 -2.356005e+00 -1.886367e+00 -1.861103e+00 1.532938e+00 1.245011e-02 8.280891e-01 1.701148e+00 -6.086433e-02 1.384363e+00 -3.943840e-01 7.116850e-01 1.338726e-01 -1.902705e-01 7.680147e-01 -4.206328e-01
<VARIANCE> 25
 1.566118e+01 2.281070e+01 3.984618e+01 3.700930e+01 3.975209e+01 5.184432e+01 4.891625e+01 4.700690e+01 4.444248e+01 4.507655e+01 4.096832e+01 3.737572e+01 1.587029e+00 3.665672e+00 2.759874e+00 2.982484e+00 3.770209e+00 4.215298e+00 3.737004e+00 3.792464e+00 3.888300e+00 3.468087e+00 3.554547e+00 3.482963e+00 2.729145e-01
<GCONST> 1.025343e+02
<MIXTURE> 7 7.692637e-02
<MEAN> 25
 6.319298e+00 2.308442e+00 2.880651e+00 -2.470248e+00 -4.253204e+00 1.883897e-01 -4.545505e+00 -4.249427e+00 -4.319049e+00 -1.937677e+00 -3.144548e+00 -3.215157e+00 -4.353459e-02 2.641207e-01 -1.928545e-03 -4.134522e-01 1.488787e-02 3.748966e-01 1.293487e-01 -1.842344e-01 -2.733349e-02 1.800155e-01 1.988260e-01 1.465062e-01 -2.976763e-02
<VARIANCE> 25
 2.272933e+01 2.959424e+01 4.776266e+01 6.634339e+01 4.902750e+01 4.919936e+01 5.915302e+01 4.913734e+01 4.374947e+01 4.360449e+01 5.083647e+01 3.805816e+01 3.934112e-01 6.553508e-01 1.429132e+00 1.182593e+00 1.469283e+00 1.618017e+00 1.839248e+00 1.786710e+00 1.753232e+00 1.632861e+00 1.513464e+00 1.361515e+00 2.164593e-02
<GCONST> 9.057050e+01
<MIXTURE> 8 4.706011e-02
<MEAN> 25
 7.274664e+00 9.087683e+00 3.992352e+00 2.935971e+00 -3.249167e+00 -2.766343e+00 -3.644965e+00 -6.309701e+00 -5.483247e+00 -4.021790e+00 -4.968406e+00 -3.231971e+00 -2.519106e+00 -6.752666e-03 7.571001e-01 2.515946e+00 2.869289e+00 1.029445e+00 1.445356e+00 1.887402e+00 9.958106e-01 1.167956e+00 2.010641e+00 2.301522e-01 -1.196950e+00
<VARIANCE> 25
 7.652186e+00 1.270628e+01 1.776885e+01 2.588742e+01 2.235831e+01 2.818072e+01 2.609085e+01 3.599612e+01 3.262090e+01 3.180925e+01 3.102638e+01 2.624813e+01 1.073970e+00 1.745212e+00 1.899350e+00 2.736265e+00 2.772925e+00 3.445920e+00 3.545027e+00 4.159439e+00 4.323434e+00 4.546360e+00 3.894860e+00 3.019216e+00 1.652908e-01
<GCONST> 9.446053e+01
<MIXTURE> 9 5.978951e-02
<MEAN> 25
 8.887057e+00 5.497723e+00 4.594398e+00 5.875398e+00 -7.824228e+00 1.745697e+00 -6.189006e-01 -1.199743e+01 -4.014057e+00 1.546997e+00 -7.147647e+00 -2.581840e+00 -1.152319e+00 1.617427e+00 1.657890e-01 -3.303666e-01 3.341079e+00 -1.151908e+00 3.691870e-01 2.206109e+00 -9.094855e-01 -1.400755e-01 7.563891e-02 3.263752e-01 -6.342244e-01
<VARIANCE> 25
 6.820145e+00 1.505228e+01 2.014310e+01 3.638173e+01 3.376830e+01 3.118095e+01 4.102288e+01 4.612883e+01 4.451438e+01 4.049878e+01 3.817680e+01 3.364938e+01 1.169312e+00 1.872371e+00 2.206730e+00 2.815457e+00 2.338943e+00 3.025890e+00 3.542959e+00 3.933101e+00 3.294114e+00 3.521460e+00 3.438403e+00 2.662678e+00 2.157647e-01
<GCONST> 9.666880e+01
<MIXTURE> 10 6.149797e-02
<MEAN> 25
 9.616047e+00 8.074519e+00 2.960636e+00 2.110529e+00 -5.025151e+00 -4.317462e+00 -6.092281e+00 -8.505687e+00 -4.084882e+00 -3.324888e+00 -7.810735e+00 -4.011089e+00 -8.173876e-01 7.832074e-01 9.002085e-01 1.021992e+00 1.384905e+00 4.813072e-01 3.235531e-01 5.459899e-01 -6.608793e-01 -1.214849e-01 9.002920e-01 -2.486767e-01 -4.902216e-01
<VARIANCE> 25
 6.305862e+00 1.024249e+01 1.689523e+01 1.832108e+01 2.192816e+01 3.274595e+01 3.746814e+01 4.380688e+01 3.412134e+01 2.948271e+01 3.547315e+01 3.214075e+01 5.869213e-01 1.005047e+00 1.258342e+00 1.713487e+00 2.127717e+00 2.172291e+00 2.526247e+00 2.830889e+00 2.455361e+00 2.529734e+00 2.301162e+00 2.029885e+00 6.249596e-02
<GCONST> 8.811628e+01
<MIXTURE> 11 5.987146e-02
<MEAN> 25
 4.360960e+00 5.033892e+00 2.768473e+00 -1.999113e+00 -5.877274e+00 -4.902190e+00 -4.133528e+00 -6.654263e+00 -7.855327e+00 -5.468100e+00 -4.626995e+00 -2.450514e+00 -1.795595e+00 1.216582e+00 -2.056248e-01 1.724191e+00 1.605574e+00 -1.212726e-02 3.242327e-02 1.326299e-01 9.449860e-01 -7.158004e-02 5.634043e-01 -6.891665e-01 -4.600933e-02
<VARIANCE> 25
 2.055116e+01 3.407407e+01 3.586196e+01 4.889355e+01 3.819965e+01 4.542257e+01 4.230185e+01 5.769847e+01 4.321500e+01 4.440600e+01 4.281569e+01 3.529195e+01 3.374346e+00 3.557614e+00 4.295417e+00 5.680181e+00 5.393056e+00 4.898547e+00 5.286413e+00 5.501420e+00 4.548844e+00 4.425628e+00 3.982195e+00 2.973170e+00 9.355280e-02
<GCONST> 1.055352e+02
<MIXTURE> 12 6.424618e-02
<MEAN> 25
 9.820398e+00 4.152261e+00 2.114718e+00 3.354807e+00 -6.372931e+00 -6.119795e-01 -2.347429e+00 -8.321796e+00 -3.545122e+00 -1.929001e+00 -2.578307e+00 -1.508879e+00 5.043804e-02 8.027843e-02 3.126698e-02 6.297045e-04 -8.096953e-02 8.303305e-02 2.342434e-02 1.632811e-03 -5.635504e-02 9.576922e-02 1.297763e-02 8.765856e-02 -2.778179e-02
<VARIANCE> 25
 7.073875e+00 1.898609e+01 2.485444e+01 3.398496e+01 2.828306e+01 4.002151e+01 4.741326e+01 5.472872e+01 3.968284e+01 3.740937e+01 3.930436e+01 3.595939e+01 5.697285e-02 1.363024e-01 2.061890e-01 2.881494e-01 3.486073e-01 4.194778e-01 5.093724e-01 5.554765e-01 6.079603e-01 5.691741e-01 5.688984e-01 5.135977e-01 4.921979e-03
<GCONST> 6.856354e+01
<MIXTURE> 13 5.725724e-02
<MEAN> 25
 1.030927e+01 5.494200e+00 1.043094e+00 -1.543513e+00 -8.284927e+00 -2.024240e+00 -7.093254e+00 -8.658848e+00 -6.588213e+00 -8.585936e+00 -7.233550e+00 -1.540372e+00 -8.259999e-01 1.215866e+00 7.422021e-01 1.356085e+00 1.722572e+00 -5.370394e-01 7.872429e-01 5.874985e-01 -8.923701e-02 7.255026e-01 2.639779e-01 -1.060171e+00 -5.274306e-01
<VARIANCE> 25
 6.494794e+00 1.156322e+01 1.891993e+01 2.181334e+01 2.472770e+01 3.616732e+01 3.363007e+01 3.904423e+01 4.087228e+01 3.355878e+01 4.376153e+01 3.301355e+01 1.006227e+00 1.250145e+00 1.776722e+00 2.376339e+00 2.750380e+00 2.407581e+00 2.717395e+00 3.301520e+00 3.119131e+00 3.208448e+00 3.251189e+00 2.779612e+00 1.095697e-01
<GCONST> 9.281181e+01
<MIXTURE> 14 6.178723e-02
<MEAN> 25
 9.166334e+00 4.306392e+00 3.204922e+00 5.156034e+00 -1.016666e+01 1.241216e+00 -9.352156e-01 -1.220641e+01 -2.210934e+00 -2.767995e+00 -5.930467e+00 -2.275035e+00 1.401567e-01 1.265019e+00 1.981016e-01 1.292468e-02 1.043024e+00 -2.958045e-01 -6.248773e-02 1.076139e+00 -9.403452e-01 5.353322e-01 -4.284735e-01 -2.855947e-01 -3.376047e-01
<VARIANCE> 25
 6.438654e+00 1.335434e+01 1.976826e+01 3.979579e+01 2.759227e+01 3.857654e+01 5.442466e+01 4.696423e+01 5.008362e+01 4.802985e+01 4.300573e+01 3.664023e+01 2.526461e-01 5.231797e-01 5.985728e-01 9.577310e-01 1.171546e+00 1.411570e+00 1.596921e+00 1.764270e+00 1.916949e+00 1.903990e+00 1.840870e+00 1.649437e+00 2.960571e-02
<GCONST> 8.487775e+01
<MIXTURE> 15 4.824114e-02
<MEAN> 25
 6.684716e+00 8.482823e+00 5.085477e+00 3.439990e+00 -1.146514e+00 -4.501142e+00 -6.913548e+00 -1.059553e+01 -9.429123e+00 -5.414811e+00 -6.435076e+00 -4.139247e+00 -1.826028e+00 -4.012488e-01 6.165079e-01 1.721458e+00 2.317458e+00 1.036700e+00 1.630828e+00 1.223108e+00 2.785843e-01 2.721322e-01 5.630568e-01 -3.224803e-01 -7.994123e-01
<VARIANCE> 25
 1.026729e+01 1.047715e+01 1.671127e+01 2.606062e+01 2.616547e+01 2.972975e+01 2.449684e+01 2.940628e+01 2.736512e+01 2.920318e+01 2.961243e+01 3.172556e+01 1.040784e+00 1.585662e+00 1.973904e+00 2.403258e+00 2.849436e+00 3.083722e+00 3.070160e+00 3.024404e+00 3.061810e+00 3.479003e+00 2.930123e+00 2.866913e+00 1.606143e-01
<GCONST> 9.259158e+01
<MIXTURE> 16 4.912631e-02
<MEAN> 25
 8.900933e+00 2.582687e+00 1.852840e+00 -9.424688e-02 -7.296918e+00 -4.076164e+00 -4.088320e+00 -6.992567e+00 -5.249055e+00 -4.391965e+00 -5.902782e+00 -2.367715e+00 1.407359e-02 -4.647223e-04 -3.255587e-02 -5.262808e-03 3.674718e-02 -1.377064e-01 -9.849422e-02 6.712493e-02 1.190410e-01 1.004748e-01 -1.252682e-01 -2.546730e-02 -1.432209e-02
<VARIANCE> 25
 8.334257e+00 1.816789e+01 2.830742e+01 3.133396e+01 3.271219e+01 5.545753e+01 5.540145e+01 5.592321e+01 5.194599e+01 5.179649e+01 4.555953e+01 4.383752e+01 6.464751e-02 1.529393e-01 2.669244e-01 3.685703e-01 4.474434e-01 5.314698e-01 6.780747e-01 7.442942e-01 7.838190e-01 8.100512e-01 7.860261e-01 7.120816e-01 4.921979e-03
<GCONST> 7.338959e+01
<TRANSP> 5
 0.000000e+00 1.000000e+00 0.000000e+00 0.000000e+00 0.000000e+00
 0.000000e+00 5.932187e-01 4.067813e-01 0.000000e+00 0.000000e+00
 0.000000e+00 0.000000e+00 6.811100e-01 3.188900e-01 0.000000e+00
 0.000000e+00 0.000000e+00 0.000000e+00 5.945219e-01 4.054781e-01
 0.000000e+00 0.000000e+00 0.000000e+00 0.000000e+00 0.000000e+00
<ENDHMM>
~h "a"
<BEGINHMM>
<NUMSTATES> 5
<STATE> 2
<NUMMIXES> 16
<MIXTURE> 1 5.812480e-02
<MEAN> 25
 3.912122e+00 -3.940946e+00 -8.800254e+00 -1.968739e+00 6.133304e+00 -1.081896e+00 5.015354e+00 -1.379704e-01 3.486053e+00 1.598110e+00 -4.958646e+00 -4.247702e+00 1.831106e+00 -4.100539e-01 -1.016390e+00 -6.635702e-01 4.876670e-02 -5.365050e-01 8.203110e-01 -5.745878e-01 -1.951195e-01 -4.379273e-02 -6.119868e-01 -1.020749e+00 3.556460e-01
<VARIANCE> 25
 2.499497e+01 2.000757e+01 2.651498e+01 3.377039e+01 3.402151e+01 5.635805e+01 3.339734e+01 3.691063e+01 3.298844e+01 3.449214e+01 3.547488e+01 2.851351e+01 3.159780e+00 2.783234e+00 3.417516e+00 2.966191e+00 5.128458e+00 5.798119e+00 4.831964e+00 4.250173e+00 3.389060e+00 3.231124e+00 3.372259e+00 3.273267e+00 2.171679e-01
<GCONST> 1.017633e+02
<MIXTURE> 2 7.522072e-02
<MEAN> 25
 5.355702e+00 -1.046492e+01 -8.677891e+00 3.278443e+00 9.537067e-01 3.973877e+00 3.039792e+00 2.596910e+00 -3.189818e+00 -6.922822e+00 -3.867917e+00 2.897944e+00 -2.404563e-02 -7.761792e-01 -6.776769e-01 9.761389e-01 1.115102e+00 7.561221e-01 -6.551886e-01 -8.534737e-01 4.086124e-02 1.719670e-01 3.330250e-01 -6.053794e-02 3.113253e-02
<VARIANCE> 25
 8.268374e+00 1.908605e+01 1.828530e+01 1.806090e+01 2.723136e+01 2.259859e+01 3.438226e+01 2.895822e+01 2.914449e+01 2.494540e+01 2.707911e+01 2.252755e+01 3.242576e-01 6.579592e-01 7.501884e-01 9.707171e-01 1.491514e+00 1.407841e+00 1.742933e+00 1.617742e+00 1.627816e+00 1.463870e+00 1.324846e+00 1.292037e+00 2.979085e-02
<GCONST> 8.094503e+01
<MIXTURE> 3 7.274709e-02
<MEAN> 25
 7.007861e+00 -8.387023e+00 -6.012491e+00 -5.846185e+00 -4.488532e-01 1.532046e-01 -4.525207e+00 3.691038e+00 3.528822e+00 2.369285e+00 -2.545033e+00 -8.758041e+00 1.792215e+00 -2.506622e+00 -1.345251e-02 -1.656287e+00 -1.442375e+00 1.427274e+00 -8.118687e-01 1.105865e+00 2.244163e-01 -5.401037e-01 3.544246e-01 -2.275028e+00 7.360041e-01
<VARIANCE> 25
 7.325436e+00 1.486205e+01 1.856983e+01 2.323872e+01 2.845898e+01 4.154262e+01 3.022639e+01 3.315755e+01 3.848298e+01 3.172481e+01 3.927110e+01 2.247422e+01 1.964658e+00 1.676891e+00 2.654838e+00 2.555369e+00 3.871583e+00 4.376744e+00 3.571448e+00 3.679382e+00 3.695928e+00 3.627843e+00 3.480879e+00 3.311349e+00 1.209722e-01
<GCONST> 9.602061e+01
<MIXTURE> 4 4.911911e-02
<MEAN> 25
 5.524377e+00 -7.986113e+00 -5.209660e+00 -4.211547e+00 -3.609156e+00 -4.211894e+00 9.267511e-01 6.556258e+00 -1.739839e+00 -3.646894e+00 -8.805916e+00 2.400624e+00 1.543378e+00 -2.588954e+00 -8.892199e-01 -1.411816e+00 -1.822334e-01 1.029224e+00 -4.452654e-01 1.094337e+00 -1.840583e+00 -8.038646e-01 -2.546720e+00 5.575522e-02 5.569593e-01
<VARIANCE> 25
 6.961598e+00 1.592693e+01 1.955699e+01 2.204013e+01 3.862461e+01 2.944494e+01 3.104763e+01 2.369902e+01 3.252648e+01 3.002169e+01 2.689892e+01 1.861487e+01 1.431031e+00 1.934646e+00 2.148211e+00 2.631252e+00 3.682397e+00 3.492056e+00 3.129440e+00 2.699330e+00 3.085059e+00 3.379489e+00 2.944013e+00 2.649051e+00 1.213740e-01
<GCONST> 9.318666e+01
<MIXTURE> 5 7.443842e-02
<MEAN> 25
 5.416079e+00 -9.902484e+00 -9.079843e+00 -3.657838e+00 3.866208e+00 -5.685604e-01 -1.783817e+00 2.433241e+00 2.714007e-01 -6.134667e+00 -9.280044e+00 -1.704030e+00 -4.739983e-01 -6.241362e-01 2.865317e-01 5.387687e-01 -2.994070e-01 -9.373957e-02 1.086590e+00 4.242475e-01 -6.265271e-01 -1.118905e+00 2.784954e-01 7.483736e-01 1.180389e-01
<VARIANCE> 25
 7.809880e+00 1.569405e+01 1.933621e+01 2.642546e+01 3.608001e+01 3.339544e+01 3.959966e+01 3.238850e+01 3.580526e+01 4.582644e+01 2.324426e+01 2.688443e+01 2.632510e-01 5.031441e-01 6.701097e-01 9.280376e-01 1.662339e+00 1.668464e+00 1.525752e+00 1.456736e+00 1.544672e+00 1.611165e+00 1.382664e+00 1.297372e+00 2.333400e-02
<GCONST> 8.214381e+01
<MIXTURE> 6 5.398294e-02
<MEAN> 25
 7.869176e+00 -8.594373e+00 -7.515378e+00 -1.162245e+01 4.712213e+00 6.647166e+00 -3.173329e-01 1.411940e-01 -9.658584e-02 4.172489e+00 -3.017895e+00 -6.740248e+00 -2.360423e-01 -3.555893e-01 -1.351266e-01 -1.317366e-01 8.784720e-01 -2.146152e-01 2.790954e-01 1.156182e-01 6.877536e-02 1.213479e-01 -8.402287e-01 -7.750560e-02 2.943168e-02
<VARIANCE> 25
 8.839361e+00 2.341379e+01 1.865891e+01 3.070483e+01 3.458167e+01 4.850880e+01 4.061536e+01 3.092734e+01 2.932192e+01 3.134145e+01 3.988758e+01 2.880511e+01 4.106466e-01 1.039453e+00 8.498682e-01 1.620970e+00 1.557614e+00 1.829475e+00 1.825266e+00 1.288339e+00 1.466960e+00 1.372702e+00 1.427101e+00 1.259844e+00 9.473926e-02
<GCONST> 8.636221e+01
<MIXTURE> 7 6.913634e-02
<MEAN> 25
 5.413651e+00 -9.124945e+00 -4.544705e+00 -3.668721e+00 -2.006253e+00 -4.185984e+00 -2.158826e-01 7.299570e+00 5.837685e+00 -2.101475e+00 -6.007220e+00 -5.295770e+00 3.462922e-01 -6.620976e-01 -1.765600e+00 -4.601644e-01 1.897287e+00 1.452914e+00 7.283418e-01 -6.912261e-01 6.499826e-02 1.954739e-01 -6.741356e-01 -1.474537e+00 5.103827e-02
<VARIANCE> 25
 8.305426e+00 1.586434e+01 2.161930e+01 1.909354e+01 3.212683e+01 3.711751e+01 3.828651e+01 2.962677e+01 3.088329e+01 3.217371e+01 2.785962e+01 2.742735e+01 3.769919e-01 8.029155e-01 1.048604e+00 1.128514e+00 1.580039e+00 2.035654e+00 2.349618e+00 2.459238e+00 2.195386e+00 1.934703e+00 2.225050e+00 1.668393e+00 3.632148e-02
<GCONST> 8.584679e+01
<MIXTURE> 8 5.751166e-02
<MEAN> 25
 3.045344e+00 -8.449825e+00 -3.021893e+00 -4.604944e+00 -6.342249e+00 -8.433791e-01 7.165118e+00 2.577865e+00 -5.439806e+00 -7.276951e+00 -3.156163e+00 -1.088194e+00 2.969334e-01 -1.529863e+00 -1.841636e+00 1.419363e+00 1.938774e+00 8.049151e-01 7.121174e-02 6.167048e-02 -6.563101e-01 -1.820901e+00 -3.318136e-01 8.379262e-01 1.030724e-01
<VARIANCE> 25
 8.939572e+00 2.008496e+01 2.021491e+01 3.342078e+01 2.949533e+01 3.124713e+01 2.803531e+01 3.358123e+01 3.133412e+01 2.667571e+01 2.160519e+01 2.528232e+01 4.664337e-01 1.194866e+00 1.156042e+00 1.385138e+00 2.039227e+00 2.662240e+00 2.700014e+00 2.705048e+00 2.501969e+00 2.206468e+00 2.265155e+00 1.791002e+00 4.939686e-02
<GCONST> 8.802540e+01
<MIXTURE> 9 5.148803e-02
<MEAN> 25
 7.044998e+00 -8.100400e+00 -8.221284e+00 -4.813115e+00 1.573358e+00 -5.393192e-01 7.712726e-01 8.251940e-02 6.567704e+00 3.217134e-01 -3.716427e+00 -8.146073e+00 1.955645e-01 -1.444228e+00 -5.961350e-01 -5.242265e-01 1.587045e-01 8.936129e-01 1.023088e+00 -2.511096e-01 5.368519e-01 -1.034652e+00 -3.826358e-02 -7.001867e-01 3.366748e-01
<VARIANCE> 25
 7.355927e+00 1.634792e+01 1.739363e+01 2.489921e+01 2.922391e+01 4.482836e+01 3.063666e+01 3.426233e+01 3.177021e+01 3.012041e+01 3.606535e+01 2.206618e+01 4.836229e-01 6.912509e-01 1.103260e+00 1.320992e+00 1.735902e+00 2.323737e+00 2.207826e+00 2.365462e+00 1.841314e+00 1.532787e+00 1.729450e+00 1.311106e+00 4.542425e-02
<GCONST> 8.557784e+01
<MIXTURE> 10 7.539272e-02
<MEAN> 25
 3.882281e+00 -4.816904e+00 -5.758103e+00 -2.051534e+00 -2.473246e+00 -4.956270e+00 1.700595e+00 -8.678406e-02 -2.845263e+00 -8.904961e+00 -5.431184e+00 1.240245e+00 2.247726e+00 -1.062548e+00 -1.081133e+00 -2.510364e+00 -1.559681e+00 -6.500236e-01 -7.988359e-01 -1.698246e+00 -2.233122e+00 -3.092176e+00 -2.608105e+00 -6.851604e-01 5.046620e-01
<VARIANCE> 25
 8.517844e+00 1.535331e+01 1.935287e+01 2.999768e+01 4.441390e+01 3.470248e+01 3.161234e+01 2.475482e+01 3.133240e+01 2.702328e+01 3.210710e+01 2.131122e+01 1.460732e+00 3.289186e+00 2.880108e+00 4.466570e+00 4.835565e+00 4.355793e+00 4.529897e+00 3.894690e+00 4.420674e+00 4.326858e+00 3.868671e+00 3.087538e+00 1.406769e-01
<GCONST> 9.796895e+01
<MIXTURE> 11 7.032810e-02
<MEAN> 25
 3.168802e+00 -1.157575e+01 -8.949336e+00 -2.140266e+00 2.662650e+00 -2.024224e+00 -8.894567e-01 -5.447226e-02 -4.831979e+00 -1.054306e+01 -4.224029e+00 1.304444e-01 -5.147271e-01 -1.294436e+00 -1.338575e-01 1.710332e-01 3.980772e-01 5.430157e-01 4.308256e-01 -1.224263e-01 -6.996111e-01 -4.222751e-01 5.795239e-01 1.523741e-01 3.582782e-01
<VARIANCE> 25
 1.016096e+01 1.925056e+01 1.971148e+01 3.003018e+01 4.105444e+01 3.473177e+01 5.253209e+01 3.660925e+01 4.239129e+01 3.325018e+01 3.929768e+01 3.146331e+01 6.749110e-01 1.020084e+00 1.393543e+00 1.902234e+00 3.453290e+00 2.569843e+00 3.220918e+00 2.793042e+00 2.622184e+00 2.392594e+00 1.933353e+00 2.080260e+00 5.215926e-02
<GCONST> 9.205792e+01
<MIXTURE> 12 9.541140e-02
<MEAN> 25
 3.074590e+00 -1.086256e+01 -6.179329e+00 -4.536536e+00 -4.163728e-01 -2.794086e+00 3.268037e+00 1.747213e+00 -5.955817e+00 -1.029460e+01 -4.984992e+00 4.570401e-01 -6.181581e-02 -7.901861e-01 -5.635342e-01 5.575143e-01 1.112825e+00 7.270635e-01 -3.393766e-01 -5.013522e-01 -2.993108e-01 -3.873356e-01 9.727500e-02 -2.732694e-02 8.833621e-02
<VARIANCE> 25
 8.095765e+00 1.770019e+01 1.660950e+01 1.946203e+01 3.909508e+01 2.387096e+01 3.419460e+01 3.232597e+01 3.836803e+01 2.562040e+01 3.058375e+01 2.375237e+01 1.935377e-01 4.255629e-01 6.355019e-01 8.210086e-01 1.409886e+00 1.421755e+00 1.605169e+00 1.356398e+00 1.620678e+00 1.341867e+00 1.278515e+00 1.234009e+00 1.468759e-02
<GCONST> 7.935403e+01
<MIXTURE> 13 5.790088e-02
<MEAN> 25
 2.933761e+00 -9.521240e+00 -5.906244e+00 -5.949599e+00 -2.743741e+00 -5.343417e+00 4.681405e+00 2.502473e+00 -3.822113e+00 -1.011833e+01 -4.985201e+00 5.409400e-01 -9.730644e-02 -2.403072e+00 -9.206799e-01 -7.514031e-01 1.316778e+00 1.181234e+00 7.733220e-01 -4.216298e-01 -1.071170e+00 -1.478519e+00 -6.381071e-01 -2.153276e-01 5.296679e-01
<VARIANCE> 25
 7.529375e+00 1.533562e+01 1.731637e+01 2.197813e+01 3.538319e+01 2.607835e+01 2.894437e+01 2.940488e+01 4.377820e+01 2.585663e+01 2.970285e+01 2.459238e+01 6.348932e-01 1.093706e+00 1.309356e+00 1.769415e+00 2.669775e+00 2.396347e+00 2.604303e+00 2.256933e+00 2.449894e+00 2.363333e+00 1.811909e+00 1.818389e+00 6.067101e-02
<GCONST> 8.808561e+01
<MIXTURE> 14 4.898692e-02
<MEAN> 25
 7.201354e+00 -8.671251e+00 -9.202954e+00 -8.245058e+00 2.842429e+00 5.451026e+00 -1.269248e+00 -2.299350e+00 4.976733e+00 -2.777458e-02 -4.699638e-01 -1.042189e+01 -5.254754e-01 -5.956163e-01 3.227647e-01 1.207316e+00 1.771707e-01 -1.630577e+00 -1.378192e-01 1.159060e+00 1.151308e+00 -2.917801e-01 -1.708632e+00 -3.915623e-01 6.317372e-02
<VARIANCE> 25
 8.748266e+00 1.552334e+01 1.669242e+01 2.650796e+01 3.094095e+01 4.250350e+01 3.990870e+01 3.574218e+01 3.213065e+01 3.515838e+01 3.462213e+01 2.627499e+01 3.044089e-01 6.883804e-01 7.490157e-01 1.268316e+00 1.594422e+00 2.043374e+00 1.945535e+00 1.877727e+00 1.660555e+00 2.127023e+00 1.781682e+00 1.800016e+00 3.668248e-02
<GCONST> 8.522228e+01
<MIXTURE> 15 4.312394e-02
<MEAN> 25
 4.873708e+00 -8.118324e+00 -9.376763e+00 -3.282711e+00 4.630727e+00 -9.963102e-01 2.199529e+00 -2.683712e+00 3.102750e+00 -3.323765e+00 -4.145905e+00 -3.880493e+00 1.674554e+00 -2.081081e+00 -1.143451e+00 -1.710315e+00 -6.491661e-01 -5.215999e-01 3.820030e-01 -1.371994e+00 1.970414e-01 -1.639795e+00 -7.590580e-01 -1.246527e+00 1.064518e+00
<VARIANCE> 25
 1.534777e+01 2.666236e+01 2.162071e+01 4.382801e+01 4.556579e+01 6.278111e+01 4.427170e+01 3.801925e+01 4.629659e+01 4.228522e+01 4.118077e+01 3.852266e+01 2.046702e+00 2.607477e+00 3.307688e+00 4.102677e+00 4.747302e+00 4.099446e+00 5.569071e+00 3.786105e+00 5.536485e+00 4.063907e+00 3.847739e+00 3.318228e+00 5.111073e-01
<GCONST> 1.044398e+02
<MIXTURE> 16 4.706762e-02
<MEAN> 25
 5.406615e+00 -9.020617e+00 -7.280880e+00 -6.676477e+00 7.343499e-02 3.372149e-01 -3.591218e+00 3.711437e+00 5.327095e+00 -2.497585e-01 -3.798876e+00 -1.008484e+01 -1.619477e-01 -1.412653e+00 -7.016005e-01 -6.789624e-01 5.135612e-01 1.239581e+00 8.919761e-01 5.898303e-01 1.600007e-01 -1.222056e+00 -1.351550e-01 -9.221519e-01 3.761521e-01
<VARIANCE> 25
 8.159626e+00 1.288716e+01 1.681109e+01 2.116978e+01 2.788111e+01 4.493886e+01 3.275090e+01 3.483935e+01 3.903984e+01 3.819829e+01 4.476990e+01 2.890430e+01 3.306349e-01 6.347500e-01 9.015638e-01 1.214607e+00 1.582326e+00 2.195656e+00 1.933357e+00 2.473620e+00 2.032614e+00 1.827034e+00 2.025194e+00 1.659986e+00 4.573173e-02
<GCONST> 8.590218e+01
<STATE> 3
<NUMMIXES> 16
<MIXTURE> 1 7.243483e-02
<MEAN> 25
 6.842575e+00 -7.611959e+00 -8.881285e+00 -7.643372e+00 6.842138e+00 4.353919e+00 1.958651e+00 1.187369e+00 -2.373706e-02 4.952306e+00 -6.768847e+00 -6.703808e+00 -4.009011e-01 1.247795e+00 -2.744291e-01 1.024038e+00 4.292490e-01 -5.128191e-01 6.689085e-01 -5.046617e-01 4.349070e-01 -6.749793e-04 -4.347316e-01 4.854747e-01 -5.993785e-01
<VARIANCE> 25
 9.474276e+00 2.431632e+01 1.986479e+01 3.516183e+01 3.027621e+01 5.243623e+01 3.673454e+01 2.431158e+01 2.667557e+01 2.600351e+01 2.953677e+01 2.678779e+01 7.126462e-01 1.229121e+00 1.298076e+00 1.575437e+00 1.849174e+00 2.667648e+00 1.991968e+00 1.835938e+00 1.733728e+00 1.783622e+00 1.811048e+00 1.600822e+00 1.173176e-01
<GCONST> 8.884179e+01
<MIXTURE> 2 5.859857e-02
<MEAN> 25
 4.988504e+00 -1.239028e+01 -8.536302e+00 2.302230e+00 6.704952e+00 4.703409e+00 -1.433803e-01 1.172830e+00 -6.653292e-01 -6.104066e+00 -4.009577e+00 3.496624e+00 -9.748187e-02 7.140136e-01 8.712589e-02 4.424349e-01 3.556305e-01 2.330844e-01 -8.430658e-02 8.502087e-02 4.170346e-01 -2.574347e-01 1.530519e-01 1.613324e-01 -5.763108e-01
<VARIANCE> 25
 9.978937e+00 2.049498e+01 1.557853e+01 2.597223e+01 2.701864e+01 2.169201e+01 3.095346e+01 2.653815e+01 2.408397e+01 2.564073e+01 2.834772e+01 2.371865e+01 7.712115e-01 9.068221e-01 8.758208e-01 9.848875e-01 1.118959e+00 1.129746e+00 1.497596e+00 1.377497e+00 1.229156e+00 1.241282e+00 1.097495e+00 1.205678e+00 1.176427e-01
<GCONST> 8.230711e+01
<MIXTURE> 3 8.420855e-02
<MEAN> 25
 7.371628e+00 -1.022458e+01 -6.696647e+00 -7.667422e+00 1.685667e+00 4.929748e+00 -4.438091e+00 4.423221e+00 2.011693e+00 2.072782e+00 -3.120469e+00 -9.906277e+00 2.806793e-01 2.892032e-01 -1.954905e-01 -1.460613e-01 4.044242e-01 4.832076e-01 -9.464476e-02 -4.162998e-01 -6.436679e-01 4.843981e-01 3.337747e-01 -3.492545e-02 -1.492894e-01
<VARIANCE> 25
 8.424673e+00 1.530192e+01 1.477984e+01 2.306364e+01 2.596080e+01 4.276268e+01 2.548802e+01 2.602409e+01 3.191289e+01 3.121226e+01 3.849153e+01 2.468584e+01 3.052570e-01 7.233461e-01 8.429067e-01 1.248106e+00 1.350285e+00 2.493210e+00 1.886706e+00 1.859733e+00 1.602261e+00 1.656842e+00 1.991401e+00 1.343778e+00 3.614508e-02
<GCONST> 8.355741e+01
<MIXTURE> 4 7.650053e-02
<MEAN> 25
 4.264727e+00 -9.869458e+00 -6.124656e+00 -2.099375e+00 -1.530482e+00 -2.021965e+00 3.299330e+00 3.911490e+00 -3.429519e+00 -9.272050e+00 -6.110244e+00 6.861324e-01 -2.309574e-01 4.266511e-01 1.122168e+00 -2.257500e-01 -1.418093e+00 -2.576930e-01 9.737183e-01 2.537657e-01 -5.764155e-01 5.309977e-02 8.847598e-01 -4.487205e-02 -6.427291e-02
<VARIANCE> 25
 6.855650e+00 1.537674e+01 1.896697e+01 2.526010e+01 3.257529e+01 2.978211e+01 3.450903e+01 3.052978e+01 4.132776e+01 2.690274e+01 2.377061e+01 2.046934e+01 1.495865e-01 4.233617e-01 4.849429e-01 6.678910e-01 1.155644e+00 1.287421e+00 1.256659e+00 1.220396e+00 1.252885e+00 1.259202e+00 1.011821e+00 1.122036e+00 1.371561e-02
<GCONST> 7.704707e+01
<MIXTURE> 5 5.801377e-02
<MEAN> 25
 6.108466e+00 -9.589287e+00 -7.132798e+00 -3.748373e+00 1.077416e+00 -2.382007e+00 -7.388344e-02 3.994095e+00 5.475695e+00 -1.584099e+00 -6.356139e+00 -7.077065e+00 -2.458353e-01 1.107451e-01 1.716195e+00 9.725347e-01 -1.788868e+00 -1.869740e+00 -4.839737e-01 1.806515e+00 9.025992e-02 -7.439336e-01 -2.543173e-01 1.498377e+00 -8.251200e-02
<VARIANCE> 25
 8.749413e+00 1.854654e+01 1.927785e+01 2.415551e+01 2.828647e+01 4.645469e+01 3.938294e+01 3.679186e+01 3.469487e+01 4.152124e+01 2.964063e+01 2.929780e+01 5.412904e-01 1.152689e+00 1.113673e+00 1.896620e+00 2.358444e+00 3.027328e+00 3.431672e+00 2.382765e+00 2.583610e+00 2.261621e+00 2.643395e+00 2.075327e+00 5.812053e-02
<GCONST> 9.064383e+01
<MIXTURE> 6 5.643404e-02
<MEAN> 25
 4.192927e+00 -8.832472e+00 -7.879705e+00 -1.705618e+00 2.919097e+00 -3.311904e-01 1.771492e+00 6.771065e-01 -5.679399e-01 -4.433638e+00 -3.973339e+00 -1.716351e+00 3.449199e-01 5.732278e-01 -1.035210e-01 9.863792e-02 -2.001484e-01 -6.821667e-02 -4.989272e-01 -3.121035e-01 -6.746291e-02 6.935369e-02 1.434700e-01 -1.872009e-01 -2.371227e-01
<VARIANCE> 25
 1.830139e+01 3.114986e+01 3.611867e+01 4.989257e+01 6.091909e+01 5.755725e+01 5.948914e+01 4.922520e+01 4.997526e+01 5.515188e+01 6.043832e+01 5.492502e+01 1.562075e+00 2.598294e+00 2.605713e+00 3.517651e+00 6.066703e+00 4.492308e+00 4.363021e+00 4.089056e+00 3.866136e+00 4.083945e+00 3.494405e+00 3.017780e+00 1.941890e-01
<GCONST> 1.052422e+02
<MIXTURE> 7 7.370707e-02
<MEAN> 25
 5.265436e+00 -1.074268e+01 -7.165052e+00 -3.354434e+00 3.415890e+00 1.931466e+00 4.019456e-02 2.513788e+00 -4.249364e-01 -3.900031e+00 -5.600476e+00 -2.337539e+00 2.359077e-02 -6.810677e-02 -4.659584e-02 8.033333e-02 1.486033e-01 1.636358e-01 -7.411668e-02 -1.238964e-01 4.763772e-02 3.235801e-02 3.574317e-02 -1.949345e-03 -4.296215e-02
<VARIANCE> 25
 8.989462e+00 1.843960e+01 2.039256e+01 3.503362e+01 4.494284e+01 3.881943e+01 4.036565e+01 3.352236e+01 4.716695e+01 3.836357e+01 3.191957e+01 4.420568e+01 1.006163e-01 2.278471e-01 2.607252e-01 3.490352e-01 5.238446e-01 5.694182e-01 6.067269e-01 5.505996e-01 5.360014e-01 5.369620e-01 4.864636e-01 4.539184e-01 9.942487e-03
<GCONST> 7.121101e+01
<MIXTURE> 8 6.695197e-02
<MEAN> 25
 1.830190e+00 -1.159883e+01 -6.276240e+00 -2.817920e+00 -4.669590e-01 -2.087843e+00 2.053990e+00 -6.543978e-01 -8.295885e+00 -1.167446e+01 -1.459277e+00 3.641762e-01 -1.564922e-01 7.652786e-01 9.170066e-01 -8.984598e-01 -1.696730e+00 -2.009672e-01 1.151749e+00 -6.461196e-02 -6.497438e-01 3.606319e-01 1.045270e-01 -3.278089e-01 -9.276668e-02
<VARIANCE> 25
 8.792102e+00 1.963557e+01 1.816383e+01 2.883008e+01 3.329998e+01 3.426212e+01 4.401361e+01 3.276421e+01 3.389309e+01 3.031873e+01 3.125275e+01 2.679541e+01 4.009446e-01 8.972764e-01 1.007876e+00 1.520214e+00 2.096025e+00 2.245962e+00 2.205564e+00 2.325042e+00 2.052676e+00 1.939776e+00 1.682481e+00 1.806324e+00 3.888964e-02
<GCONST> 8.717226e+01
<MIXTURE> 9 5.361557e-02
<MEAN> 25
 6.189610e+00 -6.961926e+00 -1.109645e+01 -5.316935e+00 6.322641e+00 -1.456767e-01 6.726189e+00 -3.836118e+00 5.237731e+00 9.007638e-01 -4.927821e+00 -7.194998e+00 7.823493e-02 1.285674e-01 -2.803704e-01 -9.226493e-02 3.305537e-01 4.138633e-01 2.074903e-01 -5.811747e-01 -1.961967e-01 6.332199e-02 1.588070e-01 1.029692e-02 -1.316462e-01
<VARIANCE> 25
 8.728683e+00 1.763175e+01 1.652658e+01 2.931930e+01 3.471795e+01 4.730566e+01 2.721820e+01 2.958115e+01 2.644720e+01 2.637724e+01 2.924535e+01 2.268311e+01 2.769059e-01 5.806158e-01 6.745874e-01 9.379955e-01 1.200944e+00 1.464754e+00 1.454939e+00 1.426230e+00 1.214048e+00 1.133578e+00 1.187090e+00 9.596668e-01 3.472160e-02
<GCONST> 8.040502e+01
<MIXTURE> 10 5.407456e-02
<MEAN> 25
 5.030178e+00 -8.769547e+00 -5.745935e+00 -2.485745e+00 1.581107e-01 -3.101213e+00 3.004321e+00 3.280249e+00 -1.797354e+00 -7.027827e+00 -6.975662e+00 3.374455e-01 3.999114e-01 8.634084e-01 4.482098e-02 4.461277e-01 -8.230751e-03 -5.611364e-01 -6.197276e-01 4.373727e-02 5.470862e-01 3.739986e-01 -3.269823e-01 3.135459e-01 -2.645161e-01
<VARIANCE> 25
 6.741769e+00 1.779222e+01 1.899798e+01 2.302438e+01 4.556773e+01 2.826299e+01 3.311891e+01 3.231997e+01 4.844154e+01 3.506882e+01 2.831706e+01 2.439869e+01 2.313271e-01 5.928162e-01 7.376933e-01 8.684946e-01 2.063289e+00 1.774513e+00 1.755270e+00 1.712027e+00 1.714018e+00 1.695069e+00 1.493609e+00 1.323846e+00 1.998729e-02
<GCONST> 8.272886e+01
<MIXTURE> 11 7.451963e-02
<MEAN> 25
 2.464265e+00 -1.138544e+01 -8.043452e+00 -3.109794e+00 1.935986e+00 -2.475262e+00 -3.480887e-01 -2.686500e-01 -6.196554e+00 -1.251183e+01 -2.864087e+00 -1.054773e+00 -8.060387e-03 1.678602e-01 9.184387e-02 1.435609e-02 -1.018261e-01 -1.461286e-01 -1.387994e-01 4.574132e-03 -1.425703e-01 -7.981139e-02 1.292710e-01 -2.046875e-01 -6.552110e-02
<VARIANCE> 25
 7.746456e+00 1.653490e+01 1.682634e+01 2.427516e+01 4.891239e+01 2.686469e+01 5.177567e+01 2.822245e+01 3.761845e+01 2.334206e+01 2.966632e+01 2.537900e+01 1.312414e-01 3.144107e-01 4.114020e-01 5.783492e-01 1.011475e+00 9.246274e-01 1.135231e+00 1.009171e+00 1.075596e+00 8.698765e-01 8.372831e-01 8.303862e-01 9.945893e-03
<GCONST> 7.508650e+01
<MIXTURE> 12 6.565531e-02
<MEAN> 25
 6.723587e+00 -6.745633e+00 -1.123899e+01 -5.373812e+00 5.455876e+00 2.738968e+00 5.461562e+00 -4.946321e+00 6.084743e+00 -6.161671e-01 -2.276866e+00 -9.192809e+00 -2.460234e-01 1.171930e+00 1.054642e-01 6.917256e-01 3.651483e-01 -2.418977e-02 -4.590090e-01 5.795822e-01 -5.789841e-01 7.918151e-01 -5.461228e-01 3.773214e-01 -6.096841e-01
<VARIANCE> 25
 9.689371e+00 2.048463e+01 1.839604e+01 3.604501e+01 2.942844e+01 5.246231e+01 3.368868e+01 2.737606e+01 2.808277e+01 2.777384e+01 3.166212e+01 2.764557e+01 7.876496e-01 1.314139e+00 1.428124e+00 1.784423e+00 2.020482e+00 2.729866e+00 2.330882e+00 2.215354e+00 1.808583e+00 1.870539e+00 1.998756e+00 1.714280e+00 1.255711e-01
<GCONST> 9.003186e+01
<MIXTURE> 13 5.484850e-02
<MEAN> 25
 5.620447e+00 -1.073509e+01 -5.876334e+00 -4.829653e+00 -5.672578e-02 -1.141259e+00 -2.426925e+00 5.529932e+00 6.258515e+00 -2.618343e+00 -5.058825e+00 -8.445428e+00 -2.030309e-01 6.561124e-02 9.892889e-01 7.585685e-01 -1.011498e+00 -1.420974e+00 1.611345e-01 1.307601e+00 -4.085180e-02 -7.645966e-01 -1.930134e-01 1.069102e+00 -4.884857e-02
<VARIANCE> 25
 8.477567e+00 1.377829e+01 1.784906e+01 2.074336e+01 2.981169e+01 4.075726e+01 3.374169e+01 3.469681e+01 3.233572e+01 3.420449e+01 2.791666e+01 2.273744e+01 1.620101e-01 4.192993e-01 5.043521e-01 5.697404e-01 8.834763e-01 1.179823e+00 1.222707e+00 1.061510e+00 1.053061e+00 1.003431e+00 1.236278e+00 9.193514e-01 1.481546e-02
<GCONST> 7.658828e+01
<MIXTURE> 14 5.490622e-02
<MEAN> 25
 5.824003e+00 -9.453603e+00 -1.279920e+01 4.977242e+00 3.509731e+00 5.244812e+00 8.593147e-01 -1.569982e+00 1.376128e+00 -6.123394e+00 -3.506855e+00 -6.515725e-01 -3.527547e-02 1.543617e-01 -2.594393e-02 6.935798e-02 4.073219e-01 1.413865e-01 -4.077379e-01 -2.323714e-01 3.208837e-01 -3.411118e-02 3.370637e-02 -1.405658e-01 -2.344415e-01
<VARIANCE> 25
 8.793750e+00 1.485610e+01 1.573654e+01 2.418163e+01 2.378428e+01 2.969599e+01 4.487109e+01 3.347468e+01 2.779507e+01 3.492120e+01 2.478969e+01 2.458702e+01 3.185797e-01 5.172325e-01 5.811550e-01 6.766033e-01 8.201657e-01 7.738557e-01 8.855452e-01 1.049382e+00 8.750930e-01 9.186917e-01 8.106319e-01 7.734953e-01 4.456991e-02
<GCONST> 7.686594e+01
<MIXTURE> 15 4.700045e-02
<MEAN> 25
 5.474781e+00 -9.166066e+00 -9.797723e+00 -6.744298e+00 5.120217e+00 1.270520e+00 3.801653e+00 -2.831462e+00 7.007826e+00 -3.009967e+00 -2.732135e+00 -9.289524e+00 -1.138825e-02 -6.012738e-02 -2.909360e-01 -2.740450e-01 5.432194e-01 5.661458e-01 2.589685e-01 -6.390795e-01 -1.008438e-01 -1.924987e-01 2.943858e-01 -2.306628e-01 -3.761945e-02
<VARIANCE> 25
 9.213292e+00 1.390242e+01 1.536976e+01 2.890855e+01 3.275117e+01 4.462056e+01 2.636039e+01 3.110417e+01 2.954413e+01 3.008127e+01 3.636621e+01 2.707902e+01 2.660872e-01 4.622567e-01 5.476025e-01 8.216156e-01 1.010419e+00 1.354839e+00 1.403043e+00 1.441854e+00 1.074720e+00 1.189232e+00 1.179388e+00 9.700922e-01 2.688714e-02
<GCONST> 7.946297e+01
<MIXTURE> 16 4.851771e-02
<MEAN> 25
 3.002994e+00 -1.134959e+01 -8.138307e+00 -4.310498e+00 1.903545e+00 -4.486000e+00 -7.979038e-01 4.364510e-01 -5.294440e+00 -1.199282e+01 -5.327852e+00 -1.103787e-01 4.030204e-01 8.643881e-01 -4.578950e-01 1.237058e-01 3.875626e-01 -7.560198e-01 -1.134653e+00 -9.118889e-02 5.647658e-01 -2.219188e-01 -4.089251e-01 -2.314601e-01 -2.448222e-01
<VARIANCE> 25
 8.035028e+00 1.628443e+01 1.735812e+01 2.382633e+01 4.322168e+01 2.986765e+01 4.459402e+01 3.236223e+01 3.858752e+01 2.719361e+01 3.575097e+01 2.627614e+01 3.509142e-01 7.397598e-01 9.262457e-01 1.305762e+00 2.397165e+00 2.203346e+00 2.358918e+00 2.273034e+00 2.502527e+00 2.201013e+00 1.953568e+00 1.942218e+00 2.776705e-02
<GCONST> 8.672556e+01
<STATE> 4
<NUMMIXES> 16
<MIXTURE> 1 8.463695e-02
<MEAN> 25
 3.702397e+00 -8.115580e+00 -8.353495e+00 4.380161e+00 7.083678e+00 5.141192e+00 1.333719e+00 9.458144e-01 6.619577e-01 -6.927975e+00 -4.017505e+00 2.290822e+00 -1.485610e+00 1.517168e+00 8.472853e-01 1.187392e+00 8.008091e-01 8.812732e-01 1.006004e+00 1.009839e+00 7.715136e-01 7.596584e-01 9.164793e-01 3.795838e-01 -1.174652e+00
<VARIANCE> 25
 1.334663e+01 3.268468e+01 2.792495e+01 3.498729e+01 3.499519e+01 3.363765e+01 4.857935e+01 4.408643e+01 3.724292e+01 3.696227e+01 3.531111e+01 3.501871e+01 1.521258e+00 2.805407e+00 2.067462e+00 2.274087e+00 2.502545e+00 2.687232e+00 2.949356e+00 2.925107e+00 2.760428e+00 3.143637e+00 2.530736e+00 2.178374e+00 3.658576e-01
<GCONST> 9.791934e+01
<MIXTURE> 2 7.449244e-02
<MEAN> 25
 4.679358e+00 -9.571108e+00 -6.487196e-01 -2.876369e+00 -6.235940e+00 -7.039087e+00 -4.926271e-01 9.592477e+00 4.536534e+00 -4.081468e+00 -3.416767e+00 -3.089296e+00 -4.558082e-01 1.103143e+00 2.511551e+00 4.062651e-01 -2.243526e+00 -1.259480e+00 -9.137068e-02 -6.031304e-02 -1.421186e+00 2.789805e-02 1.784017e+00 1.633630e+00 -1.435749e-01
<VARIANCE> 25
 8.623921e+00 1.449543e+01 1.827409e+01 1.905202e+01 2.700098e+01 3.371706e+01 3.816582e+01 2.757305e+01 3.146576e+01 2.724174e+01 2.606156e+01 2.085660e+01 2.519419e-01 5.669397e-01 1.021749e+00 9.357291e-01 1.430430e+00 1.520537e+00 1.854771e+00 1.959341e+00 1.751428e+00 1.720724e+00 1.669673e+00 1.643246e+00 2.209827e-02
<GCONST> 8.182906e+01
<MIXTURE> 3 5.081816e-02
<MEAN> 25
 5.550461e+00 -4.236239e+00 -4.235238e+00 9.644013e-01 -2.544259e+00 -4.470116e+00 4.060851e+00 4.493420e+00 1.061950e+00 -4.792554e+00 -5.823285e+00 1.407367e+00 -9.798428e-02 1.973905e+00 1.983066e+00 8.325374e-01 -8.309132e-01 -7.444242e-01 -5.548605e-01 -3.028323e-01 -2.688272e-02 5.240040e-01 7.781369e-01 7.895950e-01 -5.563025e-01
<VARIANCE> 25
 7.531640e+00 1.660211e+01 2.265997e+01 2.041623e+01 3.441433e+01 4.479643e+01 3.366021e+01 3.092193e+01 3.851098e+01 3.649297e+01 2.613699e+01 2.124036e+01 8.638657e-01 1.510041e+00 1.545502e+00 1.537090e+00 2.987101e+00 2.676496e+00 3.085569e+00 2.857081e+00 3.269999e+00 2.233593e+00 2.177444e+00 2.246887e+00 7.283671e-02
<GCONST> 9.111116e+01
<MIXTURE> 4 7.515639e-02
<MEAN> 25
 7.702025e+00 -2.556701e+00 -6.076097e+00 -3.025090e+00 3.238360e+00 -1.823817e+00 -4.562606e+00 9.149930e-01 6.636299e-01 5.690465e+00 -1.476017e+00 -7.161835e+00 -1.087182e+00 3.537735e+00 1.177537e+00 2.529125e+00 1.509329e+00 -3.828127e-01 6.306722e-01 -9.421155e-01 -5.443504e-01 4.980244e-01 -3.229497e-01 2.157610e+00 -1.490915e+00
<VARIANCE> 25
 7.880811e+00 2.096278e+01 1.895731e+01 3.365120e+01 2.794028e+01 4.940426e+01 3.491619e+01 4.584648e+01 5.120359e+01 3.471910e+01 5.650214e+01 2.850371e+01 1.842766e+00 2.374208e+00 2.584458e+00 2.981793e+00 3.455376e+00 5.242977e+00 4.514292e+00 4.847615e+00 4.842094e+00 4.295108e+00 3.693264e+00 2.846228e+00 3.510182e-01
<GCONST> 1.008290e+02
<MIXTURE> 5 6.553571e-02
<MEAN> 25
 7.341278e+00 -5.752327e+00 -6.025815e+00 -5.669236e+00 3.271732e+00 -1.659675e+00 -4.913066e+00 2.268002e+00 2.207860e+00 3.694871e+00 -5.306618e+00 -5.811291e+00 3.933231e-01 2.261840e+00 1.151235e+00 1.895484e+00 -2.954896e-01 -4.769938e-01 -7.747908e-01 -1.568118e+00 -9.928374e-01 9.060981e-01 1.043425e+00 4.416429e-01 -8.411211e-01
<VARIANCE> 25
 9.003014e+00 1.855340e+01 2.217924e+01 2.920913e+01 2.786290e+01 4.599557e+01 3.915171e+01 4.061509e+01 3.768657e+01 4.330336e+01 4.076845e+01 2.637998e+01 5.793809e-01 1.044282e+00 1.743488e+00 2.108406e+00 2.949866e+00 2.834083e+00 2.859767e+00 3.013743e+00 3.104214e+00 3.007213e+00 2.356608e+00 1.888420e+00 9.538382e-02
<GCONST> 9.289789e+01
<MIXTURE> 6 6.119255e-02
<MEAN> 25
 2.977669e+00 -7.283992e+00 -1.043991e+00 -5.165451e+00 -8.336612e+00 -2.209393e+00 6.925358e+00 2.333819e+00 -4.742986e+00 -6.265343e+00 -2.979731e+00 -1.847563e+00 -2.994929e-01 1.841337e+00 2.454755e+00 -1.304305e+00 -2.204451e+00 -2.596483e-01 -3.210942e-01 -1.145518e+00 4.280339e-01 2.245065e+00 5.824360e-01 -7.222145e-01 -2.015905e-01
<VARIANCE> 25
 7.636508e+00 1.698143e+01 2.033031e+01 2.569406e+01 2.734118e+01 3.451576e+01 3.034580e+01 3.492934e+01 2.868093e+01 3.139124e+01 2.215410e+01 2.122053e+01 3.059166e-01 8.348448e-01 9.401846e-01 1.366504e+00 1.619195e+00 1.955748e+00 2.303778e+00 2.300280e+00 2.449951e+00 1.926439e+00 2.201169e+00 1.496229e+00 3.026950e-02
<GCONST> 8.479387e+01
<MIXTURE> 7 4.080928e-02
<MEAN> 25
 8.487056e+00 -5.776550e+00 -8.971957e+00 -9.851903e+00 1.903682e+00 6.567150e+00 -2.006163e+00 -2.660870e+00 1.162766e+00 1.429503e+00 2.086851e+00 -7.215960e+00 6.230114e-01 1.157827e+00 3.597465e-01 -4.015465e-01 -9.140133e-01 7.562452e-01 5.048380e-02 -5.515525e-01 -1.301811e+00 -1.016231e-01 1.213427e+00 1.299554e+00 -2.879348e-01
<VARIANCE> 25
 9.506854e+00 1.800740e+01 1.902592e+01 3.231134e+01 3.286060e+01 4.182075e+01 4.039759e+01 3.119011e+01 3.901989e+01 4.049582e+01 4.038220e+01 3.295101e+01 3.442120e-01 8.098403e-01 8.954863e-01 1.717881e+00 1.541568e+00 1.900728e+00 2.054986e+00 2.012793e+00 1.907665e+00 1.906620e+00 2.129052e+00 1.549296e+00 5.514133e-02
<GCONST> 8.766911e+01
<MIXTURE> 8 6.219514e-02
<MEAN> 25
 5.653541e+00 7.676125e-01 -2.822390e+00 2.073717e+00 -2.312322e+00 -6.972517e+00 8.430237e-01 9.009356e-01 5.212974e-01 -6.173330e+00 -5.507801e+00 2.573410e+00 -9.127021e-01 2.998373e+00 2.396421e+00 2.762345e+00 1.630227e+00 1.470254e+00 -7.310213e-02 5.467961e-01 8.912190e-01 2.086168e+00 1.900558e+00 -2.152146e-01 -1.600860e+00
<VARIANCE> 25
 7.637659e+00 1.581761e+01 2.468984e+01 2.459888e+01 3.935327e+01 3.628070e+01 3.670812e+01 3.671373e+01 3.960966e+01 3.858485e+01 4.044153e+01 2.640683e+01 1.592349e+00 2.715120e+00 2.879733e+00 3.709886e+00 4.051554e+00 4.424303e+00 4.398218e+00 4.913895e+00 5.061811e+00 4.874543e+00 3.833327e+00 3.161251e+00 3.996969e-01
<GCONST> 1.005013e+02
<MIXTURE> 9 5.374777e-02
<MEAN> 25
 8.626578e-01 -1.036667e+00 -8.848293e+00 -2.848539e-01 6.436853e+00 2.323096e+00 6.521433e+00 2.396621e+00 6.056912e+00 3.231303e+00 -5.749649e+00 -3.737311e+00 -2.298649e+00 1.865141e+00 2.014796e+00 2.138622e+00 -3.180511e-02 8.159246e-02 -1.140937e-01 7.547058e-01 -2.178356e-01 -2.694235e-01 1.076088e+00 2.264845e+00 -9.430348e-01
<VARIANCE> 25
 2.714076e+01 2.023592e+01 2.838851e+01 2.821078e+01 3.508005e+01 6.494219e+01 3.716387e+01 5.284984e+01 4.150074e+01 3.832551e+01 3.803557e+01 3.087926e+01 3.148738e+00 3.134970e+00 3.406924e+00 3.776194e+00 4.039473e+00 5.664424e+00 5.224370e+00 5.534676e+00 4.518382e+00 4.095777e+00 4.604124e+00 3.996077e+00 5.934688e-01
<GCONST> 1.053429e+02
<MIXTURE> 10 7.378785e-02
<MEAN> 25
 2.919306e+00 -8.188917e+00 -5.552855e+00 -4.772633e+00 -3.475937e+00 -5.099092e+00 1.867179e+00 5.079963e-01 -7.066523e+00 -1.093897e+01 -3.053383e+00 -2.812138e-01 8.288087e-01 2.507148e+00 1.457391e+00 5.271206e-01 -1.358274e+00 -1.184147e+00 -8.119231e-01 -2.702021e-01 6.493832e-01 1.121813e+00 -1.815716e-01 -5.565410e-02 -6.846554e-01
<VARIANCE> 25
 8.619326e+00 2.085480e+01 2.241274e+01 2.771462e+01 4.521571e+01 3.871368e+01 4.480999e+01 3.624090e+01 4.073135e+01 3.151088e+01 3.277187e+01 3.329191e+01 8.281814e-01 1.403684e+00 1.750740e+00 2.031366e+00 2.966143e+00 2.864421e+00 3.286855e+00 3.502856e+00 2.981107e+00 2.799777e+00 2.566823e+00 2.207231e+00 7.018451e-02
<GCONST> 9.378467e+01
<MIXTURE> 11 5.759475e-02
<MEAN> 25
 7.197087e+00 -8.676610e+00 -5.410052e+00 -3.261423e+00 -1.996426e+00 -7.752022e-01 -4.091704e+00 4.030852e+00 5.953445e+00 -6.568184e-01 -1.927390e+00 -9.179156e+00 1.782726e-01 1.758346e+00 1.566385e+00 1.922387e+00 -4.082023e-01 -1.609325e+00 -6.672972e-01 -5.742517e-01 -1.005029e+00 9.963383e-01 -4.908192e-01 1.988196e+00 -6.708389e-01
<VARIANCE> 25
 9.143497e+00 1.594904e+01 1.951426e+01 2.251873e+01 2.723637e+01 5.104204e+01 3.264826e+01 4.546524e+01 3.839101e+01 3.220145e+01 3.708781e+01 2.587936e+01 7.166533e-01 1.630929e+00 1.957881e+00 2.182482e+00 3.591891e+00 3.426605e+00 3.535170e+00 4.633084e+00 3.958298e+00 3.327690e+00 2.666175e+00 2.547652e+00 9.527124e-02
<GCONST> 9.459882e+01
<MIXTURE> 12 5.267993e-02
<MEAN> 25
 6.049363e+00 -7.560745e+00 -1.038427e+01 -5.088933e+00 5.846618e+00 -6.914038e-01 -6.006276e+00 8.070988e-01 6.224447e-01 -6.338426e+00 -6.648088e+00 -5.357648e+00 6.202514e-01 1.147204e+00 1.221464e-01 -2.544595e-01 -1.040716e-01 -1.905081e-02 -9.766267e-01 -3.314724e-01 -3.769613e-02 1.201988e+00 5.014144e-01 -7.618006e-01 -3.001111e-01
<VARIANCE> 25
 8.923524e+00 1.548130e+01 1.697817e+01 2.790333e+01 3.354720e+01 3.911014e+01 3.999537e+01 3.392522e+01 4.168188e+01 5.523897e+01 3.545539e+01 2.889735e+01 3.153713e-01 5.659567e-01 7.538929e-01 1.254975e+00 1.437396e+00 1.878598e+00 1.765496e+00 2.025774e+00 1.971111e+00 2.231628e+00 1.733400e+00 1.483996e+00 3.562959e-02
<GCONST> 8.568262e+01
<MIXTURE> 13 6.320584e-02
<MEAN> 25
 1.630715e+00 -8.847645e+00 -2.748778e+00 -6.994149e+00 -6.421173e+00 -1.519135e-01 5.794452e+00 -9.121506e-01 -8.853636e+00 -8.401921e+00 -2.779268e+00 -3.008068e+00 -1.873447e-01 1.175248e+00 1.325515e+00 -1.283706e+00 -1.509028e+00 9.773932e-03 1.415629e-01 -5.925611e-01 6.675984e-01 1.280720e+00 -3.955708e-01 -9.056340e-01 -1.065269e-01
<VARIANCE> 25
 7.834343e+00 1.527374e+01 1.540609e+01 2.333097e+01 2.512664e+01 2.637232e+01 2.467705e+01 2.986404e+01 2.761567e+01 2.445848e+01 2.298579e+01 2.395335e+01 1.258561e-01 4.552640e-01 4.730250e-01 8.046836e-01 9.632114e-01 1.168548e+00 1.247746e+00 1.120814e+00 1.223600e+00 1.133326e+00 1.120309e+00 9.392309e-01 1.226684e-02
<GCONST> 7.514651e+01
<MIXTURE> 14 7.129054e-02
<MEAN> 25
 5.102208e+00 -5.222355e+00 -4.592689e+00 -3.893315e+00 -3.269368e+00 -8.729141e+00 1.696555e-01 1.057698e+00 -9.659584e-01 -6.959881e+00 -6.703735e+00 1.102037e+00 4.870930e-01 3.638122e+00 1.767000e+00 2.540930e+00 1.147547e-01 -4.299808e-01 -1.230780e+00 -6.533896e-01 6.247951e-01 1.184758e+00 6.204392e-01 1.376282e-01 -1.257668e+00
<VARIANCE> 25
 8.139427e+00 1.742943e+01 3.029973e+01 2.522850e+01 4.690336e+01 3.235892e+01 4.215154e+01 4.121051e+01 4.428011e+01 4.709818e+01 4.520416e+01 2.958986e+01 1.188330e+00 1.573034e+00 2.075051e+00 2.038546e+00 3.443768e+00 3.226734e+00 3.662088e+00 3.876470e+00 4.195776e+00 3.535823e+00 2.873928e+00 2.905261e+00 1.903981e-01
<GCONST> 9.745662e+01
<MIXTURE> 15 6.071458e-02
<MEAN> 25
 4.446683e+00 -4.962899e+00 -1.247151e+01 -5.836596e+00 7.870766e+00 5.547670e+00 6.339655e+00 -1.319677e+00 2.997269e+00 4.061355e+00 -5.668698e+00 -7.667291e+00 -1.803101e+00 1.286512e+00 1.786725e-01 1.565964e+00 -3.872069e-02 5.893297e-01 4.083576e-01 1.136808e+00 7.850428e-01 2.386092e-01 2.749218e-01 1.220787e+00 -1.227458e+00
<VARIANCE> 25
 1.702340e+01 2.613289e+01 2.207378e+01 3.697546e+01 3.505173e+01 5.343315e+01 3.570071e+01 4.089581e+01 3.991582e+01 3.896054e+01 4.094899e+01 3.833700e+01 1.807832e+00 2.741881e+00 2.657044e+00 2.938853e+00 3.272412e+00 3.803874e+00 3.521054e+00 3.857926e+00 3.575246e+00 3.030895e+00 3.022268e+00 2.671863e+00 3.060584e-01
<GCONST> 1.003530e+02
<MIXTURE> 16 5.213977e-02
<MEAN> 25
 4.810625e+00 -6.995149e+00 -7.422797e+00 -2.609705e+00 -1.363896e+00 -4.202184e+00 -1.181683e-01 2.572235e+00 -2.689868e+00 -9.429006e+00 -8.670720e+00 -2.513465e-01 1.878607e-01 2.020805e+00 1.325650e+00 6.135205e-01 -8.896310e-01 -1.403697e+00 -2.110232e-01 -1.759179e-01 3.778767e-01 2.349425e-01 3.505603e-01 6.205174e-01 -4.968136e-01
<VARIANCE> 25
 6.501810e+00 1.407619e+01 1.734998e+01 2.269305e+01 3.941365e+01 3.029502e+01 3.648788e+01 3.583408e+01 4.864906e+01 3.810418e+01 2.604109e+01 2.243422e+01 4.779638e-01 8.270383e-01 9.632148e-01 1.316306e+00 2.366315e+00 2.220103e+00 2.618858e+00 2.477040e+00 2.787301e+00 2.211681e+00 2.032423e+00 1.881819e+00 3.662791e-02
<GCONST> 8.728661e+01
<TRANSP> 5
 0.000000e+00 1.000000e+00 0.000000e+00 0.000000e+00 0.000000e+00
 0.000000e+00 5.928608e-01 4.071392e-01 0.000000e+00 0.000000e+00
 0.000000e+00 0.000000e+00 6.267536e-01 3.732464e-01 0.000000e+00
 0.000000e+00 0.000000e+00 0.000000e+00 5.738679e-01 4.261321e-01
 0.000000e+00 0.000000e+00 0.000000e+00 0.000000e+00 0.000000e+00
<ENDHMM>
~h "b"
<BEGINHMM>
<NUMSTATES> 5
<STATE> 2
<NUMMIXES> 16
<MIXTURE> 1 6.403498e-02
<MEAN> 25
 4.180741e+00 8.319303e+00 7.031814e+00 9.906936e+00 3.748537e+00 2.135964e-01 -1.410789e+00 -3.033128e+00 -2.219313e+00 -1.497372e+00 -1.510058e+00 -2.641073e+00 -2.335747e+00 7.866859e-02 2.631879e-01 1.752829e+00 2.042724e+00 1.665085e+00 1.770465e+00 7.566203e-01 3.306213e-01 3.855996e-02 3.047115e-01 1.771499e-01 -6.709055e-01
<VARIANCE> 25
 1.272445e+01 1.599294e+01 1.542111e+01 1.798092e+01 2.476169e+01 2.571714e+01 2.644242e+01 2.758232e+01 2.514263e+01 2.429496e+01 2.137003e+01 2.328842e+01 1.476970e+00 2.786417e+00 2.926677e+00 2.620794e+00 2.584927e+00 2.904366e+00 2.856525e+00 3.570716e+00 3.580854e+00 3.393003e+00 3.338980e+00 2.285547e+00 2.238555e-01
<GCONST> 9.338425e+01
<MIXTURE> 2 6.915153e-02
<MEAN> 25
 1.121361e+01 3.942487e+00 -7.266997e-01 -1.350498e-01 1.659978e+00 5.434807e+00 -3.152788e+00 -6.561343e+00 -5.518270e+00 -1.431947e+00 3.635064e+00 -3.712848e-01 -2.711340e-01 2.837357e+00 1.577074e+00 3.127985e+00 2.225173e+00 -1.688146e-02 2.226267e+00 -1.349587e-01 -1.033727e+00 -9.787918e-01 -1.585495e+00 7.933947e-01 -1.276271e+00
<VARIANCE> 25
 5.990520e+00 1.591343e+01 1.367484e+01 3.126918e+01 2.413090e+01 2.076180e+01 2.426667e+01 2.076394e+01 2.121288e+01 2.634108e+01 2.382415e+01 1.725287e+01 1.284732e+00 2.255015e+00 2.541893e+00 4.495669e+00 2.948123e+00 4.381161e+00 3.917918e+00 4.230496e+00 3.974536e+00 3.442041e+00 3.353206e+00 2.810509e+00 1.301033e-01
<GCONST> 9.303172e+01
<MIXTURE> 3 5.652044e-02
<MEAN> 25
 9.083673e+00 5.977856e+00 4.894317e+00 7.442922e+00 1.719634e+00 -2.398668e+00 -4.482837e+00 -1.867216e+00 1.174480e+00 2.498643e-01 -1.498439e+00 -2.936697e+00 -7.468503e-01 3.284007e+00 7.242046e-01 3.144063e+00 2.996388e+00 2.140868e+00 7.888030e-01 -1.113985e+00 -3.631422e-01 -6.211185e-02 -1.287050e-02 -9.406947e-01 -1.359160e+00
<VARIANCE> 25
 7.353905e+00 1.764787e+01 1.413673e+01 1.651924e+01 2.167925e+01 1.713002e+01 2.132323e+01 2.348856e+01 2.213064e+01 2.111577e+01 1.772097e+01 1.896643e+01 1.567303e+00 2.110216e+00 4.085013e+00 3.163698e+00 4.079334e+00 3.253242e+00 4.676912e+00 3.971412e+00 4.091574e+00 3.588219e+00 3.137990e+00 2.691436e+00 1.544107e-01
<GCONST> 9.257864e+01
<MIXTURE> 4 8.054223e-02
<MEAN> 25
 1.653080e+00 6.735106e+00 4.433094e+00 9.792513e+00 4.380861e+00 1.638541e+00 1.388459e+00 -2.407336e+00 -1.923205e+00 -2.270020e-01 -1.744696e+00 -1.489823e+00 2.219597e+00 1.320322e+00 9.994347e-01 2.261195e-02 -8.094776e-01 -1.139923e+00 -1.275410e+00 -1.329150e+00 -1.378871e+00 -8.899037e-01 -9.979669e-01 -1.021195e+00 7.475574e-01
<VARIANCE> 25
 3.161282e+01 2.656499e+01 2.216669e+01 2.313542e+01 3.122561e+01 3.390730e+01 3.861635e+01 4.020664e+01 3.746129e+01 3.115884e+01 2.934960e+01 2.638409e+01 2.532634e+00 2.553263e+00 2.063970e+00 2.590683e+00 2.550131e+00 2.723518e+00 2.855134e+00 3.418130e+00 3.281504e+00 2.823217e+00 3.399685e+00 2.535746e+00 2.703142e-01
<GCONST> 9.777870e+01
<MIXTURE> 5 6.665369e-02
<MEAN> 25
 9.000467e+00 1.011085e+01 2.500363e+00 4.338586e+00 3.983977e+00 3.631987e+00 4.705135e-01 -4.956782e+00 -5.047464e+00 -2.440158e+00 -7.789292e-01 -7.948153e-01 -1.690397e+00 1.422031e+00 2.078794e+00 3.269779e+00 1.502884e+00 -5.932703e-01 1.392482e+00 5.524099e-01 2.084931e-01 -8.129805e-01 -1.260307e+00 -1.842556e-01 -8.078110e-01
<VARIANCE> 25
 7.877361e+00 1.101993e+01 1.402085e+01 2.199408e+01 1.922790e+01 1.895688e+01 2.455027e+01 2.313586e+01 2.151432e+01 2.348783e+01 2.205625e+01 1.984192e+01 1.189378e+00 2.141767e+00 1.991080e+00 3.115705e+00 2.632178e+00 2.703112e+00 2.828889e+00 2.886325e+00 3.187530e+00 3.120992e+00 2.815442e+00 2.221143e+00 1.360400e-01
<GCONST> 8.964718e+01
<MIXTURE> 6 7.021984e-02
<MEAN> 25
 9.756248e+00 -4.551811e-01 2.239893e+00 3.879641e+00 -6.851166e-02 -2.224484e+00 -8.755437e+00 -4.097778e+00 -1.727780e+00 1.745640e-01 3.125892e+00 -2.449193e+00 9.336355e-01 2.765383e+00 -1.205048e+00 3.299988e-01 3.190235e+00 3.116175e+00 1.326830e+00 -2.123549e+00 -1.204196e+00 9.448774e-01 2.915114e-01 -7.304106e-03 -1.156879e+00
<VARIANCE> 25
 6.980841e+00 2.193172e+01 1.444358e+01 1.895834e+01 2.366038e+01 2.980911e+01 2.731357e+01 2.904368e+01 3.191111e+01 2.360607e+01 2.149507e+01 1.889075e+01 1.075248e+00 1.884253e+00 2.194421e+00 2.883621e+00 3.300027e+00 2.711311e+00 3.757214e+00 3.539367e+00 3.553051e+00 2.681226e+00 2.724476e+00 2.148591e+00 1.867996e-01
<GCONST> 9.212975e+01
<MIXTURE> 7 7.047152e-02
<MEAN> 25
 7.994969e+00 6.135028e+00 5.167279e+00 7.352543e+00 1.689997e+00 -1.633496e+00 -5.058867e+00 -4.134552e+00 -2.263369e+00 -4.722500e-01 -5.971085e-01 -2.969851e+00 -3.862874e-01 1.201352e+00 -9.081559e-02 6.651304e-01 1.102495e+00 1.001018e+00 6.502464e-01 -5.558131e-01 -3.250634e-01 3.536256e-02 5.100203e-02 1.382551e-02 -4.152048e-01
<VARIANCE> 25
 1.058815e+01 2.074443e+01 1.647720e+01 1.941921e+01 2.164849e+01 2.300941e+01 2.439551e+01 2.823684e+01 2.640069e+01 2.359270e+01 2.252897e+01 2.506338e+01 5.981604e-01 9.775168e-01 1.647975e+00 1.496740e+00 1.596720e+00 1.839244e+00 1.996664e+00 1.701294e+00 1.811456e+00 1.898654e+00 1.545197e+00 1.559984e+00 6.040059e-02
<GCONST> 8.459830e+01
<MIXTURE> 8 6.480178e-02
<MEAN> 25
 7.854099e+00 -4.053576e+00 4.592737e+00 -2.000180e+00 -5.762478e+00 -9.465067e+00 -5.832853e+00 6.801174e-01 -1.082553e+00 -1.266849e+00 -3.460342e+00 5.815809e-02 1.614331e+00 2.880372e+00 -3.224062e-01 3.725510e+00 3.212502e+00 1.509879e+00 -1.777803e+00 -9.774792e-01 8.135474e-01 -4.036103e-01 -3.660490e-01 -1.463974e+00 -1.401051e+00
<VARIANCE> 25
 7.963715e+00 1.603992e+01 2.257025e+01 2.251269e+01 2.771977e+01 2.122543e+01 3.060310e+01 2.648267e+01 3.272900e+01 2.758288e+01 2.478021e+01 1.988735e+01 1.371872e+00 2.130791e+00 3.519939e+00 2.897389e+00 3.573494e+00 3.226605e+00 3.887840e+00 4.816314e+00 3.434373e+00 3.592803e+00 2.985518e+00 3.296754e+00 1.383519e-01
<GCONST> 9.469942e+01
<MIXTURE> 9 7.025117e-02
<MEAN> 25
 1.028543e+01 6.716306e+00 7.052461e-01 2.889472e+00 1.335492e+00 -2.037581e+00 -8.253090e+00 -8.348783e+00 -5.231071e+00 -3.573356e+00 -5.921977e+00 -7.969131e+00 -6.744554e-01 2.151565e+00 2.012482e+00 2.936023e+00 3.302156e-02 4.305667e-01 1.265007e+00 -6.789519e-01 -9.793224e-01 -1.419844e+00 3.478516e-02 -1.078182e+00 -6.856186e-01
<VARIANCE> 25
 7.606319e+00 1.578501e+01 1.697285e+01 2.233407e+01 2.075804e+01 2.160774e+01 2.457205e+01 2.417224e+01 2.850410e+01 3.029293e+01 2.163916e+01 2.035159e+01 1.343912e+00 1.903036e+00 2.322658e+00 3.118088e+00 2.845724e+00 2.835907e+00 3.434573e+00 3.482128e+00 3.307224e+00 3.430304e+00 2.972615e+00 2.678972e+00 1.094342e-01
<GCONST> 9.179398e+01
<MIXTURE> 10 4.966244e-02
<MEAN> 25
 9.497239e+00 7.792390e+00 3.780382e+00 6.737570e+00 7.624893e-01 3.887743e+00 1.474018e+00 -9.482982e+00 -1.105574e+01 7.677004e-02 -7.947713e-01 -2.947914e+00 -5.443245e-01 9.683851e-01 -1.550826e-01 -5.229563e-01 1.357212e+00 -2.594880e-03 4.163916e-01 1.281847e+00 1.236649e+00 -8.261344e-01 -5.071846e-01 1.033767e+00 -3.456952e-01
<VARIANCE> 25
 7.028857e+00 1.278278e+01 1.429013e+01 2.476258e+01 3.322436e+01 2.703122e+01 3.911361e+01 2.951173e+01 3.115909e+01 3.089443e+01 3.580292e+01 2.595520e+01 1.092688e+00 1.552775e+00 1.846471e+00 2.976341e+00 2.599094e+00 3.173789e+00 3.719897e+00 3.271554e+00 4.108363e+00 2.628982e+00 2.777828e+00 2.370098e+00 1.009310e-01
<GCONST> 9.268217e+01
<MIXTURE> 11 4.516536e-02
<MEAN> 25
 1.179868e+01 -1.363086e-01 -3.506188e+00 -2.789189e+00 2.046093e+00 2.331908e-01 -7.061372e+00 -4.408362e+00 8.896778e-01 3.366201e+00 1.784745e-01 -3.369077e+00 1.236954e-01 3.713606e+00 2.834052e+00 3.934690e+00 1.083454e+00 9.406631e-01 2.289494e-01 -1.814998e+00 -1.786863e+00 -5.476684e-01 9.557559e-01 -5.283775e-02 -1.496563e+00
<VARIANCE> 25
 5.460718e+00 2.047879e+01 1.517319e+01 3.405252e+01 2.291050e+01 2.730975e+01 3.126822e+01 2.824571e+01 3.287373e+01 2.756288e+01 3.706012e+01 1.763791e+01 1.264755e+00 2.306639e+00 2.639449e+00 3.343727e+00 2.898291e+00 3.909791e+00 4.682983e+00 4.217537e+00 3.701725e+00 4.589530e+00 3.502735e+00 4.482792e+00 1.288391e-01
<GCONST> 9.562176e+01
<MIXTURE> 12 4.875796e-02
<MEAN> 25
 6.781815e+00 -3.181813e+00 8.516468e+00 6.884337e+00 -6.425099e+00 -8.798643e+00 -7.832266e+00 1.489176e-01 -2.985010e+00 -5.978640e+00 1.659799e+00 5.470213e-02 1.818329e+00 1.324306e+00 -2.425975e+00 1.054645e+00 3.735353e+00 1.727237e+00 -3.907208e-01 -5.567510e-01 9.028129e-01 1.339656e+00 -4.165378e-01 -7.826933e-01 -1.124441e+00
<VARIANCE> 25
 8.025377e+00 1.616048e+01 1.711850e+01 2.221104e+01 3.185031e+01 2.451925e+01 2.475956e+01 2.494408e+01 2.980727e+01 2.710229e+01 2.309608e+01 2.174142e+01 1.051995e+00 1.569799e+00 2.028576e+00 2.225446e+00 2.711920e+00 2.753342e+00 2.544912e+00 2.919092e+00 2.681801e+00 2.391068e+00 2.058325e+00 1.692571e+00 1.760312e-01
<GCONST> 9.014652e+01
<MIXTURE> 13 7.059172e-02
<MEAN> 25
 8.561755e+00 5.354256e+00 3.683964e+00 4.341392e+00 -8.071871e-01 -4.533683e+00 -9.110098e+00 -9.124727e+00 -5.422306e+00 -2.905896e+00 -7.914032e+00 -7.057055e+00 -5.678793e-01 2.784059e-01 -7.701048e-02 5.615044e-01 6.069160e-01 5.150217e-01 7.089735e-01 3.756076e-01 1.559285e-01 -3.714175e-01 8.357148e-01 -7.120530e-02 -1.721919e-01
<VARIANCE> 25
 1.222957e+01 1.850525e+01 2.327937e+01 2.860367e+01 2.962092e+01 3.466768e+01 3.901049e+01 4.433381e+01 3.630362e+01 4.271490e+01 3.526845e+01 3.523450e+01 1.375731e+00 1.428417e+00 1.950353e+00 2.047386e+00 2.423791e+00 2.625749e+00 2.789543e+00 3.731558e+00 2.847870e+00 2.884871e+00 3.243272e+00 2.370325e+00 9.221198e-02
<GCONST> 9.474680e+01
<MIXTURE> 14 7.314909e-02
<MEAN> 25
 1.055508e+01 4.409042e+00 -1.735368e+00 -1.645729e+00 1.042436e+00 4.274133e+00 -3.994953e+00 -6.378029e+00 -6.604594e+00 -2.619074e+00 1.266738e+00 -5.315037e-01 -2.034987e-01 6.954654e-01 8.505610e-01 1.533086e+00 6.243505e-01 -4.261360e-02 7.245770e-01 3.769459e-01 4.439213e-02 -4.980565e-01 -5.023617e-01 1.686033e-01 -5.312802e-01
<VARIANCE> 25
 7.651704e+00 1.581492e+01 1.316144e+01 2.500414e+01 2.139559e+01 2.513195e+01 2.714273e+01 2.647146e+01 2.589478e+01 2.803156e+01 3.262221e+01 2.025820e+01 5.860990e-01 1.047570e+00 1.285023e+00 2.248402e+00 1.824123e+00 2.471854e+00 2.151218e+00 2.099623e+00 2.153715e+00 1.989632e+00 1.979656e+00 1.650145e+00 9.774681e-02
<GCONST> 8.638518e+01
<MIXTURE> 15 4.972871e-02
<MEAN> 25
 9.183538e+00 -1.855977e+00 -5.015999e+00 -7.191381e+00 8.444081e-01 -9.193961e-01 -1.052598e+01 -5.840480e+00 -2.647102e+00 1.348281e+00 -1.805528e+00 -3.754477e+00 1.169869e+00 2.368041e+00 2.064338e+00 3.043584e+00 3.428541e-01 8.675138e-01 4.850518e-01 -1.664344e+00 -1.749426e+00 -9.193587e-01 5.228885e-01 -4.320779e-01 -1.117942e+00
<VARIANCE> 25
 7.227735e+00 1.419134e+01 1.990571e+01 3.167230e+01 2.543476e+01 3.562237e+01 3.640921e+01 2.754813e+01 3.770930e+01 3.177600e+01 5.024781e+01 2.389600e+01 8.717415e-01 1.801969e+00 1.833130e+00 3.190537e+00 2.766984e+00 3.449676e+00 3.741237e+00 3.304331e+00 3.348990e+00 4.242561e+00 3.644374e+00 5.254384e+00 1.008500e-01
<GCONST> 9.522356e+01
<MIXTURE> 16 5.029727e-02
<MEAN> 25
 9.698873e+00 4.801913e+00 4.839282e+00 3.200425e+00 -2.151367e+00 -4.761353e+00 -7.562139e+00 -5.081562e+00 -2.959792e+00 -4.398211e+00 -8.100461e+00 -7.968437e+00 8.706311e-01 3.021425e+00 -8.048971e-01 2.843945e+00 2.400635e+00 1.541833e+00 -4.021882e-01 -9.293057e-01 3.135808e-01 -9.080322e-01 -5.757554e-01 -1.940917e+00 -9.464118e-01
<VARIANCE> 25
 8.802227e+00 1.731843e+01 1.734795e+01 2.019859e+01 2.172214e+01 1.907246e+01 2.585531e+01 2.320532e+01 2.169158e+01 2.691072e+01 2.184718e+01 2.266136e+01 1.629505e+00 2.256083e+00 3.865384e+00 2.958430e+00 4.282478e+00 3.154318e+00 3.781899e+00 3.826003e+00 3.492904e+00 3.828201e+00 3.057163e+00 2.959278e+00 1.239218e-01
<GCONST> 9.355185e+01
<STATE> 3
<NUMMIXES> 16
<MIXTURE> 1 5.827250e-02
<MEAN> 25
 -5.021720e+00 -2.351062e-01 7.625306e-01 7.700085e+00 5.964632e+00 5.604478e+00 6.394197e+00 5.659642e+00 3.835397e+00 3.077806e+00 3.092744e+00 3.118998e+00 -1.864925e-02 2.011560e-02 -9.101033e-05 2.361494e-02 -7.077065e-03 -1.235168e-02 -1.665881e-02 -2.435761e-02 -8.953933e-03 4.739305e-02 -1.380478e-02 -9.765549e-03 2.144548e-04
<VARIANCE> 25
 1.038950e+01 2.537572e+01 2.104286e+01 2.088693e+01 2.053088e+01 2.954440e+01 2.202882e+01 3.210057e+01 2.093877e+01 2.946461e+01 3.029123e+01 1.893933e+01 3.019268e-01 6.603059e-01 7.753283e-01 8.432953e-01 1.000042e+00 1.297420e+00 1.301790e+00 1.569880e+00 1.521531e+00 1.431866e+00 1.338649e+00 1.171103e+00 3.149312e-02
<GCONST> 8.006107e+01
<MIXTURE> 2 5.210781e-02
<MEAN> 25
 6.109181e+00 1.039821e+01 5.543135e+00 9.191623e+00 5.770562e+00 2.805423e+00 9.879552e-01 -3.884251e+00 -4.049489e+00 -2.448627e+00 -1.407367e+00 -1.751569e-01 -7.339997e-01 8.590823e-02 3.363877e-01 5.318182e-01 5.488545e-01 6.047046e-02 3.881148e-01 4.468980e-01 4.066854e-01 -2.552784e-01 -3.337865e-01 1.739115e-01 -1.450845e-01
<VARIANCE> 25
 1.168134e+01 1.218572e+01 1.453779e+01 2.139460e+01 1.813809e+01 2.066508e+01 2.094706e+01 2.287634e+01 2.266035e+01 2.019738e+01 1.880352e+01 1.958978e+01 6.134974e-01 7.657070e-01 7.832022e-01 9.952558e-01 9.457760e-01 1.186832e+00 1.240656e+00 1.275983e+00 1.562963e+00 1.454028e+00 1.329416e+00 1.151347e+00 4.537391e-02
<GCONST> 7.850286e+01
<MIXTURE> 3 5.620169e-02
<MEAN> 25
 5.675116e+00 1.130006e+01 6.535141e+00 1.010126e+01 7.253968e+00 2.848794e+00 3.220143e-01 -5.387256e+00 -4.793607e+00 -2.526683e+00 -6.819116e-01 3.351370e-01 -2.093702e+00 -2.592228e+00 -7.806529e-01 -5.703452e-01 -4.473950e-01 -1.243225e+00 1.275916e-01 1.479423e+00 1.720863e+00 2.312822e-01 -3.973692e-01 2.358190e-01 5.931932e-01
<VARIANCE> 25
 1.225517e+01 1.163191e+01 1.375914e+01 1.677896e+01 1.595337e+01 1.770726e+01 2.193065e+01 1.865471e+01 1.946433e+01 1.981126e+01 1.778530e+01 1.648618e+01 1.551404e+00 1.851765e+00 2.172607e+00 2.689672e+00 2.299558e+00 2.485472e+00 2.484822e+00 2.291260e+00 2.257021e+00 2.293054e+00 2.167974e+00 1.694367e+00 2.115662e-01
<GCONST> 8.733676e+01
<MIXTURE> 4 5.316304e-02
<MEAN> 25
 -1.829274e+00 2.240929e+00 3.188970e+00 8.932639e+00 5.279395e+00 3.396869e+00 3.600203e+00 2.375188e+00 2.213063e+00 1.540408e+00 1.698496e+00 -7.956864e-02 -1.531305e+00 -2.289057e+00 -1.185369e+00 -7.728832e-01 1.308554e-01 1.724894e-01 1.257503e+00 1.817470e+00 1.702135e+00 1.241899e+00 1.273836e+00 1.188726e+00 4.915383e-01
<VARIANCE> 25
 1.334206e+01 2.058963e+01 1.861740e+01 1.953160e+01 2.340648e+01 2.279098e+01 1.950312e+01 2.398309e+01 2.307359e+01 2.752224e+01 2.281114e+01 1.827950e+01 2.012266e+00 2.336925e+00 2.344592e+00 2.387754e+00 2.373329e+00 2.523267e+00 2.799533e+00 3.009964e+00 2.808790e+00 2.683365e+00 2.663988e+00 2.247316e+00 4.734053e-01
<GCONST> 9.262615e+01
<MIXTURE> 5 9.422453e-02
<MEAN> 25
 5.373736e+00 6.069198e+00 4.212952e+00 7.319758e+00 2.695403e+00 -4.677797e-01 -3.490792e+00 -6.419137e+00 -5.056175e+00 -3.240363e+00 -3.200451e+00 -4.566597e+00 -2.409214e-01 -3.054701e+00 -2.870038e+00 -3.762210e+00 -6.548268e-01 -2.669481e-02 5.579159e-02 2.006665e+00 1.962499e+00 9.513366e-01 9.164061e-01 1.042250e+00 1.032906e+00
<VARIANCE> 25
 1.652395e+01 2.421383e+01 1.970652e+01 2.599383e+01 2.366732e+01 2.636469e+01 3.628866e+01 2.798359e+01 2.660979e+01 2.735781e+01 2.297334e+01 2.831170e+01 1.357340e+00 2.771038e+00 2.243669e+00 2.893150e+00 3.502207e+00 3.737090e+00 4.717645e+00 4.610135e+00 3.889170e+00 4.716135e+00 3.809571e+00 3.607141e+00 1.770909e-01
<GCONST> 9.724960e+01
<MIXTURE> 6 5.055387e-02
<MEAN> 25
 8.874023e+00 6.029943e+00 7.105246e-01 2.652002e+00 3.619697e+00 3.801393e+00 -2.009120e+00 -6.181073e+00 -6.115349e+00 -1.392878e+00 2.093002e+00 3.495973e-01 -1.359276e-01 -2.471775e-01 -1.073011e+00 -1.643885e+00 -6.243057e-01 4.541783e-01 3.625362e-01 -3.804332e-01 -2.684408e-01 2.860164e-01 5.690407e-01 4.003602e-01 3.757283e-01
<VARIANCE> 25
 8.431078e+00 1.713713e+01 1.321232e+01 1.788498e+01 1.559541e+01 1.922298e+01 2.708431e+01 2.137461e+01 1.893163e+01 2.296061e+01 2.081087e+01 1.687172e+01 9.415970e-01 1.220520e+00 1.034524e+00 1.812961e+00 1.574067e+00 2.098008e+00 1.832131e+00 1.788179e+00 1.753102e+00 1.887082e+00 1.716786e+00 1.340466e+00 1.162794e-01
<GCONST> 8.341264e+01
<MIXTURE> 7 6.270646e-02
<MEAN> 25
 7.662105e+00 2.576453e+00 4.106032e+00 6.715567e+00 1.059336e+00 -3.715145e+00 -6.748598e+00 -4.023567e+00 -2.490693e+00 -1.690998e+00 9.002270e-02 -1.881235e+00 -1.365474e+00 -1.578649e+00 2.186348e+00 7.067587e-01 -2.484637e+00 -2.365475e+00 4.562253e-01 1.201919e+00 -4.283266e-01 -1.333200e+00 9.524356e-02 7.797147e-01 6.109343e-01
<VARIANCE> 25
 1.155873e+01 2.788253e+01 1.842024e+01 2.421672e+01 2.307759e+01 2.954875e+01 2.965402e+01 2.641653e+01 2.266826e+01 2.349179e+01 2.495758e+01 2.404564e+01 8.828600e-01 1.440026e+00 2.098977e+00 2.265238e+00 2.164952e+00 2.818730e+00 2.901996e+00 2.777682e+00 3.045749e+00 2.174410e+00 2.226800e+00 1.790966e+00 1.569444e-01
<GCONST> 9.080296e+01
<MIXTURE> 8 6.858007e-02
<MEAN> 25
 5.635664e+00 2.757458e+00 4.377672e+00 5.020109e+00 -3.349940e-01 -4.410377e+00 -6.965004e+00 -5.041570e+00 -2.956819e+00 -2.462770e+00 -2.348864e+00 -3.584734e+00 -1.882892e-01 -5.321011e-01 -6.355655e-01 -5.322219e-01 -1.037648e-01 -1.554773e-01 -3.038231e-01 -1.950664e-01 2.713857e-02 3.755046e-01 1.767874e-01 -1.181325e-02 2.717168e-01
<VARIANCE> 25
 1.557370e+01 2.061781e+01 2.169643e+01 2.427876e+01 2.537318e+01 2.536491e+01 2.801978e+01 2.931918e+01 2.710476e+01 2.878000e+01 2.580699e+01 2.673256e+01 6.944923e-01 8.432637e-01 1.860071e+00 1.153326e+00 1.527051e+00 1.747309e+00 1.758992e+00 1.852114e+00 1.623851e+00 1.570406e+00 1.564878e+00 1.456964e+00 6.563544e-02
<GCONST> 8.578690e+01
<MIXTURE> 9 7.999527e-02
<MEAN> 25
 -2.155675e-01 4.600420e+00 4.738146e+00 1.025927e+01 6.884429e+00 2.978050e+00 2.914107e+00 7.184452e-01 7.455842e-01 -9.248882e-02 -7.830084e-01 -5.603658e-02 2.970329e-01 -2.091891e+00 -5.511032e-01 -2.204430e+00 -2.297910e+00 -1.847132e+00 -9.578509e-01 6.944589e-02 1.137672e-01 -9.038401e-02 2.199107e-01 2.296400e-01 1.364273e+00
<VARIANCE> 25
 2.023039e+01 2.497748e+01 2.027430e+01 1.809172e+01 2.009316e+01 2.542822e+01 2.538152e+01 2.690276e+01 2.489098e+01 2.417915e+01 2.562386e+01 1.870544e+01 3.824348e+00 3.855350e+00 5.264527e+00 3.755111e+00 3.392613e+00 3.969901e+00 3.940738e+00 3.983965e+00 3.891473e+00 3.299301e+00 3.420187e+00 2.708267e+00 3.187513e-01
<GCONST> 9.807584e+01
<MIXTURE> 10 6.492881e-02
<MEAN> 25
 9.399830e+00 1.030062e+01 3.381502e+00 4.283802e+00 -8.701892e-02 -1.238418e+00 -3.062739e+00 -4.505490e+00 -4.039342e+00 -5.612887e+00 -6.192395e+00 -7.126767e+00 -1.209499e+00 -1.697430e-01 7.472156e-01 9.606489e-01 2.241356e-01 -2.088066e-01 4.247594e-01 1.108329e-01 -5.435790e-02 -2.520570e-01 2.777702e-01 3.414035e-02 -8.363322e-02
<VARIANCE> 25
 7.854527e+00 1.030437e+01 1.365637e+01 1.946823e+01 1.732804e+01 2.236918e+01 2.905519e+01 2.801984e+01 2.604514e+01 2.308088e+01 2.067344e+01 2.561311e+01 1.012943e+00 1.575146e+00 1.165829e+00 1.249606e+00 1.410178e+00 1.365397e+00 1.482237e+00 1.625079e+00 1.615261e+00 1.527314e+00 1.556378e+00 1.425180e+00 5.079927e-02
<GCONST> 8.235403e+01
<MIXTURE> 11 5.208744e-02
<MEAN> 25
 5.026017e+00 9.120119e+00 7.531073e+00 1.043735e+01 2.918198e+00 -1.996162e+00 -5.840965e+00 -7.350108e+00 -5.852626e+00 -5.410028e+00 -5.560520e+00 -7.637641e+00 -2.334452e+00 -2.446848e+00 -5.405068e-01 -3.750840e-01 -6.164434e-02 4.002806e-01 2.236925e+00 2.367796e+00 1.459063e+00 8.983431e-01 1.979159e+00 1.770291e+00 4.090897e-01
<VARIANCE> 25
 1.577728e+01 1.443536e+01 1.212500e+01 1.646170e+01 2.009059e+01 2.110151e+01 2.380201e+01 2.656309e+01 2.388542e+01 2.351632e+01 2.027250e+01 1.839322e+01 1.753297e+00 2.137671e+00 2.281507e+00 2.842564e+00 2.955481e+00 2.821516e+00 2.963730e+00 3.606229e+00 3.689218e+00 3.265583e+00 2.831731e+00 2.374456e+00 3.159048e-01
<GCONST> 9.234560e+01
<MIXTURE> 12 8.472006e-02
<MEAN> 25
 1.331884e+00 2.287969e+00 2.448938e+00 6.674467e+00 4.814054e+00 -3.091170e-01 -5.822668e-01 -2.415598e+00 -1.314457e+00 -1.541710e+00 -1.341262e+00 -6.248446e-01 -1.964071e-01 -2.028653e+00 -1.840984e+00 -1.796804e+00 -6.889280e-01 -1.060290e+00 -1.615000e+00 -3.500705e-01 7.393395e-01 9.616318e-01 8.886085e-01 2.799346e-01 9.362338e-01
<VARIANCE> 25
 1.777065e+01 2.217897e+01 1.809270e+01 1.612111e+01 1.871505e+01 2.166309e+01 2.066295e+01 1.850733e+01 1.882154e+01 1.758915e+01 1.586964e+01 1.769471e+01 1.622959e+00 1.552776e+00 1.511626e+00 2.142256e+00 2.186937e+00 2.460867e+00 3.035132e+00 2.837262e+00 2.619465e+00 2.584809e+00 2.712468e+00 2.213789e+00 1.213836e-01
<GCONST> 8.852248e+01
<MIXTURE> 13 5.158730e-02
<MEAN> 25
 9.617537e+00 4.616010e+00 -2.162845e+00 -3.682699e+00 2.108744e-01 4.811443e+00 -3.097957e+00 -6.467048e+00 -6.658183e+00 -3.845489e+00 7.471983e-01 -1.040589e-01 -2.940107e-01 -2.882445e-01 -2.694920e-01 -6.992810e-01 -4.577726e-01 -7.448655e-02 2.185722e-02 -1.786616e-01 8.444683e-02 3.535866e-01 4.387491e-01 2.460304e-01 2.686955e-01
<VARIANCE> 25
 8.694695e+00 1.494741e+01 1.272409e+01 2.169225e+01 2.349565e+01 2.540401e+01 3.102068e+01 2.695776e+01 2.786777e+01 2.801360e+01 3.449274e+01 2.367784e+01 3.170545e-01 6.992890e-01 7.398058e-01 1.680819e+00 1.318108e+00 1.326532e+00 1.503543e+00 1.538391e+00 1.480260e+00 1.365477e+00 1.444582e+00 1.126811e+00 8.807376e-02
<GCONST> 8.179095e+01
<MIXTURE> 14 5.364656e-02
<MEAN> 25
 6.447649e+00 9.996874e+00 6.989984e+00 1.048079e+01 4.899724e+00 -3.417929e-01 -2.929092e+00 -4.100625e+00 -1.941883e+00 -7.356979e-01 -1.184744e+00 -3.130321e+00 -9.460412e-01 -9.809713e-01 -3.410732e-01 -3.738633e-01 -8.264753e-02 -1.554453e-01 4.746904e-01 3.924409e-01 6.872582e-02 -2.703849e-01 -2.730024e-02 4.289689e-01 2.837992e-01
<VARIANCE> 25
 1.136441e+01 1.324215e+01 1.143817e+01 1.471507e+01 1.674805e+01 1.646937e+01 2.248358e+01 2.147938e+01 2.186490e+01 1.920788e+01 1.750787e+01 2.097460e+01 1.892527e+00 1.653310e+00 1.407639e+00 1.328395e+00 1.288574e+00 1.600923e+00 1.743920e+00 1.587284e+00 1.550380e+00 1.497749e+00 1.431396e+00 1.456955e+00 9.021455e-02
<GCONST> 8.251322e+01
<MIXTURE> 15 6.028076e-02
<MEAN> 25
 7.072348e+00 6.307768e+00 3.810323e+00 4.985213e+00 -1.042775e+00 -4.197491e+00 -5.989070e+00 -6.323082e+00 -5.103168e+00 -6.640322e+00 -7.417079e+00 -8.677247e+00 -1.749691e+00 -2.343685e+00 3.041876e-01 -8.794447e-01 -8.835003e-01 -9.114835e-01 3.508600e-01 6.504129e-01 4.347470e-01 1.025003e+00 1.654593e+00 1.585810e+00 5.767341e-01
<VARIANCE> 25
 1.750629e+01 2.213073e+01 1.723743e+01 1.966265e+01 2.137630e+01 2.180689e+01 2.676825e+01 2.479973e+01 2.450660e+01 2.252476e+01 2.121799e+01 2.249984e+01 1.514298e+00 1.953452e+00 4.304341e+00 3.055310e+00 3.667765e+00 3.279835e+00 3.704309e+00 3.573147e+00 3.195441e+00 3.535781e+00 2.834995e+00 2.658643e+00 1.268630e-01
<GCONST> 9.396798e+01
<MIXTURE> 16 5.694385e-02
<MEAN> 25
 8.954066e+00 9.773532e+00 2.754831e+00 3.466757e+00 1.447517e+00 3.554783e+00 9.754466e-01 -5.480396e+00 -6.768859e+00 -3.601699e+00 -2.354576e+00 -1.564361e+00 -1.813316e+00 -2.021610e+00 -5.109918e-01 1.333950e-01 7.472442e-01 -1.603790e+00 -1.191894e+00 6.192676e-01 1.575584e+00 3.752828e-01 5.074649e-01 5.004925e-01 3.933123e-01
<VARIANCE> 25
 1.008456e+01 1.558693e+01 1.413204e+01 1.870115e+01 2.081690e+01 2.358410e+01 3.306435e+01 3.187463e+01 2.605864e+01 2.736046e+01 2.775659e+01 2.373652e+01 1.219278e+00 1.725479e+00 2.296558e+00 3.550650e+00 2.613640e+00 2.757127e+00 3.341218e+00 3.630593e+00 3.185575e+00 3.020963e+00 3.241937e+00 2.282245e+00 1.215992e-01
<GCONST> 9.226942e+01
<STATE> 4
<NUMMIXES> 16
<MIXTURE> 1 7.096744e-02
<MEAN> 25
 -2.021491e+00 -2.424517e+00 9.747748e-01 5.314353e+00 2.354883e+00 -4.968946e-01 2.750855e+00 3.484431e+00 3.969338e+00 2.656781e+00 2.905799e+00 1.418969e+00 2.393087e+00 -6.463401e-01 -4.796741e-01 -3.117098e+00 -2.364076e+00 -1.788677e+00 -2.119396e+00 -1.185530e+00 -9.652575e-01 -5.335755e-01 -9.610402e-01 -3.402484e-01 1.540061e+00
<VARIANCE> 25
 1.588590e+01 1.975175e+01 2.504494e+01 2.325219e+01 2.664782e+01 2.939886e+01 2.874312e+01 2.979860e+01 2.334043e+01 2.452517e+01 2.425216e+01 1.720140e+01 2.844716e+00 3.474229e+00 6.679144e+00 5.631111e+00 5.565841e+00 5.496383e+00 4.648926e+00 4.317583e+00 3.778564e+00 4.518811e+00 4.723928e+00 2.784251e+00 4.776119e-01
<GCONST> 1.008760e+02
<MIXTURE> 2 8.245487e-02
<MEAN> 25
 8.863740e+00 3.910187e+00 -4.091258e+00 -7.498354e+00 -2.146187e+00 3.660997e+00 -1.491241e+00 -3.445140e+00 -4.881667e+00 -2.663410e+00 5.544029e-01 1.843632e+00 1.145586e+00 -8.322183e-01 -2.192603e+00 -5.329576e+00 -2.121099e+00 1.478921e+00 -1.177757e+00 -1.351415e-02 -1.899783e-01 7.049184e-01 1.263733e+00 6.868818e-01 1.184022e+00
<VARIANCE> 25
 9.682336e+00 1.313395e+01 1.484016e+01 4.420325e+01 2.495085e+01 2.636926e+01 2.847905e+01 2.654268e+01 2.492774e+01 2.852969e+01 2.263781e+01 1.779057e+01 2.148459e+00 2.914806e+00 3.078081e+00 4.640978e+00 5.582275e+00 3.499928e+00 4.069510e+00 4.655591e+00 4.169205e+00 4.527587e+00 3.925354e+00 3.243243e+00 1.712284e-01
<GCONST> 9.708572e+01
<MIXTURE> 3 7.428669e-02
<MEAN> 25
 8.261366e+00 -7.693641e+00 -8.789900e+00 -6.479631e+00 2.627348e-01 -2.875895e+00 -4.909671e+00 2.485176e+00 3.978856e+00 -1.919259e+00 -8.784213e+00 -3.343690e+00 -3.183770e-01 -3.493643e+00 -2.694388e+00 -2.152822e+00 3.145196e-01 4.443580e-01 1.267126e+00 1.698200e+00 -2.302451e-01 -2.014079e+00 -1.834896e+00 1.283383e+00 1.262632e+00
<VARIANCE> 25
 8.224179e+00 1.571804e+01 1.640222e+01 2.561388e+01 2.265199e+01 2.870356e+01 3.197284e+01 2.943604e+01 2.236377e+01 4.095343e+01 2.038305e+01 2.397429e+01 1.653575e+00 2.618539e+00 2.216962e+00 3.699856e+00 3.047250e+00 2.991849e+00 4.264703e+00 4.118284e+00 3.905914e+00 3.712970e+00 3.499544e+00 2.835703e+00 1.932579e-01
<GCONST> 9.515674e+01
<MIXTURE> 4 6.646549e-02
<MEAN> 25
 1.519437e+00 1.272699e+00 8.039059e+00 7.896755e+00 -1.773753e+00 -6.179850e+00 -3.828253e-01 -5.633562e-01 -1.884179e+00 -3.514119e+00 -6.024097e-01 -6.503528e-01 -1.039893e+00 -2.758168e+00 2.399987e+00 -2.675668e+00 -4.433556e+00 -1.443623e+00 -3.402441e-01 -3.089556e-02 -1.065524e+00 3.164594e-01 1.200577e+00 1.083562e+00 1.526210e+00
<VARIANCE> 25
 1.625953e+01 1.745334e+01 1.723277e+01 2.078560e+01 2.862955e+01 2.655014e+01 2.567340e+01 2.317195e+01 2.188576e+01 1.983761e+01 2.152733e+01 2.182065e+01 2.572268e+00 2.463377e+00 3.798531e+00 4.993628e+00 3.803751e+00 3.892239e+00 4.666398e+00 4.293744e+00 3.813366e+00 6.354000e+00 3.328298e+00 2.914151e+00 2.556812e-01
<GCONST> 9.730111e+01
<MIXTURE> 5 8.383974e-02
<MEAN> 25
 9.647977e+00 -2.601429e+00 -5.966155e+00 -8.795901e+00 -1.897620e+00 4.595491e+00 -3.941148e+00 -4.537334e+00 -8.372645e-01 4.368657e+00 6.189090e+00 -3.587939e+00 5.150039e-01 -3.240428e+00 -2.608961e+00 -3.875064e+00 -1.307088e+00 1.037742e+00 -4.042130e-01 8.856670e-01 1.731391e+00 1.213044e+00 6.461841e-01 -2.672696e+00 1.480740e+00
<VARIANCE> 25
 7.738821e+00 1.648180e+01 1.480842e+01 2.915780e+01 2.125253e+01 3.036925e+01 3.480578e+01 2.537140e+01 2.911426e+01 2.700056e+01 2.564460e+01 2.998964e+01 1.849036e+00 2.330529e+00 2.446218e+00 3.531017e+00 3.554005e+00 4.684240e+00 4.087820e+00 4.750842e+00 4.543617e+00 3.597607e+00 4.364599e+00 3.398639e+00 1.646166e-01
<GCONST> 9.651118e+01
<MIXTURE> 6 5.623907e-02
<MEAN> 25
 4.350573e+00 -2.402847e+00 1.347847e+01 7.863076e+00 -9.724248e+00 -8.024981e+00 -4.271232e+00 -1.198457e+00 -7.183778e+00 -7.449966e+00 2.966298e+00 2.946049e-01 -1.266943e+00 -5.942106e-01 2.996191e+00 -1.734481e+00 -3.534542e+00 3.377885e-01 -9.223679e-02 -7.133717e-01 -1.405646e+00 -6.518139e-01 8.251750e-01 -1.905247e-01 9.448773e-01
<VARIANCE> 25
