<CEPSNORM> <>
<MEAN> 120
 5.346440823211684901e+00 6.089950821980948170e+00 6.623869031089198778e+00 7.094162120991464704e+00 7.227416931973751346e+00 7.195844198290324734e+00 7.290990192462613706e+00 7.392597761026533654e+00 7.426265366444119387e+00 7.425907198824906352e+00 7.289105972655923971e+00 7.307249356203452173e+00 7.331158313072876354e+00 7.332956844914536809e+00 7.371816475156395931e+00 7.370366076854231174e+00 7.420379812101317363e+00 7.510467150325560226e+00 7.640395452712407831e+00 7.742203470949728050e+00 7.809000943939444106e+00 7.863341221130875525e+00 7.984761554068347422e+00 8.165106478238781662e+00 8.293466330713586743e+00 8.319742528978643747e+00 8.339760465710600812e+00 8.394791114525274267e+00 8.466184423498150480e+00 8.553834035725197182e+00 8.612010244973653528e+00 8.615586703294960458e+00 8.586107447803637882e+00 8.559953008259610030e+00 8.573802933783516877e+00 8.588943853698875586e+00 8.626361533053755082e+00 8.688492763004392216e+00 8.685905734706276249e+00 8.078769423706695818e+00 2.284518288644535658e-04 2.705251037209796430e-04 2.624717155021543931e-04 2.394130706446026687e-04 2.103408766062417736e-04 1.820498773005267039e-04 1.456271894086407967e-04 9.616164768495126113e-05 4.052018821273987948e-05 1.953244666122126293e-05 4.640817702070151678e-05 7.824876729474901902e-05 8.410724340366039942e-05 8.607326988991334299e-05 1.124610752982701617e-04 1.425381686485060182e-04 1.397087792060119134e-04 1.044391003442208415e-04 5.213053874047114976e-05 -1.148607984862011174e-05 -4.212094497345971502e-05 -2.486882061347022859e-05 1.452959183020298974e-05 4.959132995088708095e-05 6.383666785281129211e-05 6.101027771609168727e-05 3.862563830077081733e-05 2.627006256547219281e-05 2.379241959221623922e-05 2.638077463367187892e-05 5.374828735103770016e-05 7.180855689168898692e-05 7.861992558184620751e-05 8.142551687789458459e-05 8.425099119842948791e-05 8.792991307730285808e-05 8.186811350953491096e-05 7.319175160675488623e-05 7.124888082528278114e-05 6.509581881478253740e-05 -2.168304559353697852e-06 3.159008221400664181e-06 1.025775990424639732e-05 1.329672935360814611e-05 1.765018708621882669e-05 2.079861540539418212e-05 2.465843872224945772e-05 2.754446827182588262e-05 2.743530522478923061e-05 2.532179599604838575e-05 2.184436538353663848e-05 1.862180519957925710e-05 1.836357110394406367e-05 2.142894405275379247e-05 2.162852021810773070e-05 2.176674673173920196e-05 2.512418607703958539e-05 2.759579941041364124e-05 2.970229593804990515e-05 3.282709129199662255e-05 3.511170784901724434e-05 3.567216517203864406e-05 3.377520730494325252e-05 3.333392576190530039e-05 3.061205516298447519e-05 2.908816195677681315e-05 2.803470218735919179e-05 2.933013892525222465e-05 2.974811261035084745e-05 3.035362522544746012e-05 2.891843818929314911e-05 2.785027495279371706e-05 2.622768470424028804e-05 2.598959079373408884e-05 2.421393558512254467e-05 2.266569328933099782e-05 2.079005052205472605e-05 1.984583519751206561e-05 1.881723832785124845e-05 1.700493997786588037e-05
<VARIANCE> 120
 1.303432990906738809e+00 2.896909599522601297e+00 4.684368255670527503e+00 5.576502805275218577e+00 5.552659365468265662e+00 5.281167404840125812e+00 5.350627773026680245e+00 5.467333463678542671e+00 5.310630537913176852e+00 4.952350585327842225e+00 4.602291987854385980e+00 4.330634304421025149e+00 4.055471603268458125e+00 3.803627729570102645e+00 3.601709017970833315e+00 3.453740581431851808e+00 3.310711488017766158e+00 3.196829794422946236e+00 3.164081043947952310e+00 3.128442374024416495e+00 3.027104390687256341e+00 2.893409461715727105e+00 2.828555282752390099e+00 2.871320562306621582e+00 2.882236482383930820e+00 2.822428169452805946e+00 2.774674534308161356e+00 2.742306355981838806e+00 2.704863308883290074e+00 2.662715034701733430e+00 2.621295507356279586e+00 2.609615940404481194e+00 2.480201851746784314e+00 2.351213977057383886e+00 2.300647916136284721e+00 2.245081136429092794e+00 2.183284212970974636e+00 2.138423215598166394e+00 2.150009740777292677e+00 2.041751152436489747e+00 4.812660935277856405e-02 8.993689536313174970e-02 1.578297509629132955e-01 1.960035321801736619e-01 2.022971725440013413e-01 2.024483526474310513e-01 2.143342051471321119e-01 2.263334860961313810e-01 2.253589602298352590e-01 2.123800227180248079e-01 1.985622072127693483e-01 1.853978641686133133e-01 1.735107757831152731e-01 1.633331708467367360e-01 1.560192967604155379e-01 1.514127165423208021e-01 1.470573389975235457e-01 1.446908910440252161e-01 1.451025570733181225e-01 1.432146340727648848e-01 1.374619731878600759e-01 1.301545169077016895e-01 1.249084073937813261e-01 1.236077372523224499e-01 1.238644082788230572e-01 1.239007040125415238e-01 1.252822282866365433e-01 1.260677042826188199e-01 1.252567897546638387e-01 1.243728872538083369e-01 1.225993525914753218e-01 1.185360501578904269e-01 1.122240468516581685e-01 1.067382750797759017e-01 1.037042632174734053e-01 1.000448323057732819e-01 9.629738533416026813e-02 9.353152463258068705e-02 9.121484028801302157e-02 8.830487261081496064e-02 8.608131983314962210e-03 1.429010684996422781e-02 2.370055927366555154e-02 2.899300373920706345e-02 3.039663009210243419e-02 3.104538056710384741e-02 3.311331373820473184e-02 3.510308127909170933e-02 3.490715949731239276e-02 3.263603707069864107e-02 3.040030776798992654e-02 2.825073974226369536e-02 2.648860323947123743e-02 2.512084319509173824e-02 2.428753356200956046e-02 2.389045863091151037e-02 2.344650367700511218e-02 2.323170740629811049e-02 2.330716772428112829e-02 2.297941504436197893e-02 2.211716112285515637e-02 2.104743209003367976e-02 2.018520862568462179e-02 1.984679012793589756e-02 1.992102877275623435e-02 2.012377350017599542e-02 2.056868585596860130e-02 2.083765513123955748e-02 2.081482098668697295e-02 2.080755724107718682e-02 2.069565620368429490e-02 2.025920825063612374e-02 1.935752471009965711e-02 1.834988283295064387e-02 1.762586340727041040e-02 1.689945399290518693e-02 1.630019458121748088e-02 1.589916512953222158e-02 1.552613141181084788e-02 1.505640172951324199e-02
