<CEPSNORM> <>
<MEAN> 120
 5.196922180832073579e+00 5.695914196610938340e+00 6.164801275954586046e+00 6.729450150488577975e+00 7.028734464365538059e+00 7.019767316882866481e+00 7.056213191706633303e+00 7.182778353910783231e+00 7.234895374431163262e+00 7.220601554497570795e+00 7.095661181488483571e+00 7.145236675109828184e+00 7.164884347227613581e+00 7.142839049334349433e+00 7.171134860384200671e+00 7.167330255245795811e+00 7.204463409418149666e+00 7.278556413108392853e+00 7.406745491713231822e+00 7.510266418857304060e+00 7.599537767827102996e+00 7.685951744086644943e+00 7.823609182971413389e+00 8.006746419394277225e+00 8.174629089201165044e+00 8.281237372423628784e+00 8.386687886971637695e+00 8.511483774442945460e+00 8.610780157960983061e+00 8.677269718099083207e+00 8.677976648677375948e+00 8.640229198096562868e+00 8.605763411128462437e+00 8.546125679472300618e+00 8.541735073267769707e+00 8.569716915646063526e+00 8.602884663319162684e+00 8.633332312070679748e+00 8.509809927381386530e+00 7.934988248516726017e+00 1.480000987685495110e-04 1.134455222702500328e-04 -2.396268128933836205e-05 -1.387276293820802816e-04 -2.451779440391410906e-04 -3.497271437306379948e-04 -4.108472376247371532e-04 -4.846831868605842105e-04 -5.466957218024948726e-04 -5.657537805790102854e-04 -4.811294045853579536e-04 -3.831204598368662616e-04 -3.803649361539507517e-04 -4.218224784350836794e-04 -4.005047018922421758e-04 -3.310833276277755778e-04 -3.264777272707036055e-04 -3.616825603264778137e-04 -4.209478822233958116e-04 -4.876883712283300418e-04 -5.014466404086479964e-04 -4.762421384743732288e-04 -4.213053559000985281e-04 -3.555712643542448216e-04 -3.203161619869423745e-04 -3.002194423123174215e-04 -3.107478645249227311e-04 -3.357810246979378165e-04 -3.396725742694886347e-04 -3.134172817398320102e-04 -2.710241317212249367e-04 -2.139381468774004843e-04 -1.805573282198938087e-04 -1.669363351328207346e-04 -1.532949020429378217e-04 -1.235756064577032921e-04 -1.018672078261359179e-04 -9.613237412297366991e-05 -8.691711051961713438e-05 -7.751426723629196395e-05 -1.332743763004940743e-06 -1.372036229783437212e-07 -6.454354177079317535e-06 -1.157620020089206217e-05 -1.049783201144083223e-05 -1.165090316212973659e-05 -1.106880737950589084e-05 -8.692413439599217505e-06 -8.792110718262884493e-06 -9.252547743702939094e-06 -8.629518705550418643e-06 -9.828100504617335507e-06 -1.097778779234071723e-05 -1.143225654867548012e-05 -1.161056703712638581e-05 -9.877420954581265415e-06 -1.013517668304810743e-05 -1.049990498959870262e-05 -1.036922615449924331e-05 -9.933710070897967335e-06 -9.208406735849777522e-06 -7.494571125142323948e-06 -5.931216684795845076e-06 -4.765085758206486012e-06 -6.882424084524156767e-06 -7.222309302165186188e-06 -6.135776252757972957e-06 -6.200346414900790501e-06 -6.378406229736708001e-06 -5.388530691390202459e-06 -4.627716476520057707e-06 2.145705700760946428e-06 1.669986869954876347e-06 1.875841914456122268e-06 -1.206097863126486117e-06 -1.528928590291333846e-06 -9.860003336867598397e-08 1.719044292206394954e-06 1.127736328595521634e-06 3.805111462789268762e-07
<VARIANCE> 120
 1.667702834607283080e+00 3.455508328929539630e+00 5.353415652933712465e+00 6.336291733824317873e+00 6.716126804597834621e+00 6.529393138458878809e+00 6.405921140984006001e+00 6.635495932430416133e+00 6.559476765579908886e+00 6.143680103422951788e+00 5.718695270688371579e+00 5.442976334285994255e+00 5.234786611240764387e+00 4.933841092783211479e+00 4.578675029901724258e+00 4.356017275443264225e+00 4.163239805210793065e+00 3.997444776091931828e+00 3.951337940606379107e+00 3.903172176653185943e+00 3.822376785167215019e+00 3.728925767506332534e+00 3.715934639699341346e+00 3.864769309142687348e+00 3.953782752619005691e+00 3.899171032495758027e+00 3.865190452428649337e+00 3.933198170194799559e+00 3.932237804523268210e+00 3.814131594551369631e+00 3.780255490676140084e+00 3.947540306362725460e+00 3.789488953758194612e+00 3.564078144626321887e+00 3.431250185071348824e+00 3.309408789772049886e+00 3.195077236845293100e+00 3.169639034071352057e+00 3.324714770390869489e+00 3.043792611584621000e+00 4.689828829839030877e-02 9.221003412563298640e-02 1.506434375890679800e-01 1.859348902168352635e-01 2.029733664464800635e-01 2.087823930258907168e-01 2.183642275960490098e-01 2.330797272715065538e-01 2.331330888940903456e-01 2.242678872954872449e-01 2.154009327595220735e-01 2.033871400061412760e-01 1.955666560421624456e-01 1.859417104430666212e-01 1.746603541175594521e-01 1.685461133331971062e-01 1.639580309347695719e-01 1.602919423153850997e-01 1.592890931993660719e-01 1.562936293309351299e-01 1.513023160268187062e-01 1.455086585582495429e-01 1.414108619580426995e-01 1.435071809529931408e-01 1.476995220647862039e-01 1.494900691418463157e-01 1.514712259355172896e-01 1.553814478462380855e-01 1.558967840636553415e-01 1.528913783960511308e-01 1.499915654778305185e-01 1.460928875856465359e-01 1.402266351077933737e-01 1.324778433363523467e-01 1.278680063333718919e-01 1.228304837528010618e-01 1.178816335704219870e-01 1.145793906068744705e-01 1.099727102906037784e-01 1.039053674573110070e-01 8.519992530573602951e-03 1.464654569003322887e-02 2.265826873092914237e-02 2.732995800589938309e-02 2.997932603634865384e-02 3.151357506732069963e-02 3.358379942577144339e-02 3.557447535896350599e-02 3.511393515599376541e-02 3.355914468460667599e-02 3.228216176547021865e-02 3.027654552136468599e-02 2.913376356916519069e-02 2.794275714222846027e-02 2.661367233273131613e-02 2.608256220221313176e-02 2.565452175418955413e-02 2.527203478331936301e-02 2.511169763999491697e-02 2.461344328543788387e-02 2.387026002325363244e-02 2.307897552493420185e-02 2.246001655205687869e-02 2.264118191859823548e-02 2.327858694747923438e-02 2.371771284056354429e-02 2.425395203055886323e-02 2.508176081172866848e-02 2.539770176847661737e-02 2.518058148777941110e-02 2.498941950316312458e-02 2.466622251153074985e-02 2.394932359068461039e-02 2.264955810076365456e-02 2.164542046756862126e-02 2.064608332212612349e-02 1.987634804074446190e-02 1.942741308114412022e-02 1.866340116364352889e-02 1.765581066698456228e-02
